<?xml version="1.0"?>
<opencv_storage>
<opencv_ml_svm>
  <format>3</format>
  <svmType>C_SVC</svmType>
  <kernel>
    <type>LINEAR</type></kernel>
  <C>1.</C>
  <term_criteria><iterations>100</iterations></term_criteria>
  <var_count>3780</var_count>
  <class_count>2</class_count>
  <class_labels type_id="opencv-matrix">
    <rows>2</rows>
    <cols>1</cols>
    <dt>i</dt>
    <data>
      0 1</data></class_labels>
  <sv_total>1</sv_total>
  <support_vectors>
    <_>
      0.00826928951 -0.0177158918 -0.0327711552 -0.0295991041
      -0.00709062908 -0.00163297751 0.0223964714 0.0315857939
      0.0222858507 0.00418386003 -0.0112420954 -0.0152887069
      -0.00732629793 -0.00226883194 0.00264108717 0.0283324085
      0.0328530408 0.0142015973 0.0256253481 0.00829907227 -0.0136795547
      -0.0337670594 -0.0283929482 -0.00938763656 0.015896434
      0.0206522401 0.0285682697 0.0155439526 0.00856477488 0.00275271595
      -0.0236969236 -0.0219841301 -0.0104534067 0.00287916744
      0.00651030801 0.00981729664 -0.00520297932 -0.00265583093
      -0.00041832542 0.00713491719 0.00776972715 0.00496458542
      0.0241943784 0.0273369644 -0.00831220578 -0.0138350138
      0.0170117151 0.0132099632 0.0165314376 0.0278558023 0.0135225961
      0.0197756197 0.0109052062 -0.0244635828 -0.00764384028 0.011746469
      0.0153174503 -0.00269503659 -0.00543335499 -0.00360623701
      0.00112294231 -0.00849868357 -0.015810186 -0.0237527303
      0.0202118512 0.0188877042 0.0144231152 0.0230018813 0.00744131627
      0.00888564996 -0.00630791811 -0.0294146407 -0.0215519704
      0.0290782433 0.0215458795 0.0176690482 0.0231152158 0.0158385783
      0.0229272284 0.00841183867 -0.0364727899 -0.0157096665
      0.0431422777 0.0295245014 0.0128230583 0.0234564189 0.0165820383
      0.0245002229 0.00837248378 -0.0361345299 -0.0355117619
      0.0233281963 0.0231867023 0.0182997715 0.022674216 0.0141499704
      0.0177285783 0.00342147774 -0.0444662683 -0.0320921354
      0.0215209946 0.0273214355 0.00929770526 0.0166838542 0.0147662787
      0.0229365267 0.00654326659 -0.0457980298 -0.0116027556
      0.0404220484 0.025359828 0.0126406867 0.0194650162 0.0120376851
      0.0134366136 0.00385481864 -0.0326356627 -0.0110702878
      0.0322842002 0.0113406768 0.0136769274 0.0241696816 0.00776155759
      0.00407608133 -0.00377045525 -0.022242697 -0.0226489864
      0.0239326004 0.00802178308 0.00473263301 0.0163677838 0.0126185333
      0.0117070274 0.00504623167 -0.0348322168 -0.00800244603
      0.00864779018 -0.000126290775 0.00279454398 0.0101544373
      0.00256752106 -0.00262530777 0.00242393324 -0.0122349756
      -0.0111840814 0.00776134571 0.00457364786 0.00406746054
      0.0114685483 -0.000182600139 -0.00442095613 -0.0173851065
      -0.0276152045 -0.00447746972 0.020646235 0.0234612375 0.0166941732
      0.0231980998 0.0125554241 0.00966035668 -0.013204406 -0.0187956281
      -0.000822095259 -0.00612765877 -0.00786048826 -0.00700176135
      -0.0172641017 -0.0151974922 -0.011986454 -0.00966965221
      -0.00230562827 0.0125061451 0.0192961227 0.0161374416
      0.00691726105 0.00690308167 0.00737384148 0.00716921873
      0.00205045729 0.00361822266 -0.0220350102 0.0118638529
      0.0160780437 0.0147865778 0.0145707419 0.00615193974 0.00384272728
      -0.0182211231 -0.0340961777 -0.0164396744 -0.00074794871
      0.00920789037 0.00994907226 0.0186616257 0.0141289653 0.0114047807
      -0.00581460586 -0.0307560712 0.0150604062 0.0128296595
      0.0105942804 0.00533434935 0.00672193617 -0.00178666657
      -0.00187736959 -0.00822384935 -0.00701399613 0.0241939072
      0.0116708828 0.00782997161 0.00797540415 0.00705973664
      0.00285463152 -0.000186989331 -0.00345813227 -0.00139949715
      -0.021723181 0.00596180884 0.0138245653 0.00326582231 0.0136707993
      0.00762679474 0.0108398115 -0.00258029159 -0.0313592739
      -0.0160754621 0.0099053001 0.00969788991 0.00666088006
      0.0182126034 0.011000745 0.0178830307 0.00400916534 -0.0173467509
      0.0168977045 0.00610156637 -0.000279958796 0.00347565487
      0.00457502902 0.00568371592 0.00520334905 0.00582164899
      0.00450444734 0.00587247498 0.00643037818 0.00235362258
      0.00986575335 0.0147428252 0.00908973906 0.0135708041 0.0124816224
      0.00964591373 -0.0147449384 0.00894927047 0.0128590241
      0.00946970843 0.0231450647 0.0147170126 0.0176175367 0.0100653758
      -0.0158341844 -0.0160025395 -0.019552052 -0.00240722508
      0.0089945877 0.0126117477 0.00702772662 0.0182588957 0.0176588856
      -0.0183326267 0.0025805966 0.00596747268 0.00156801275
      0.0100609083 0.019483285 0.010574636 0.0134138325 0.00998841692
      0.00732494239 -0.000242093185 0.00153178279 0.00397608848
      0.0078142127 0.0191178732 0.00859853346 0.0122500872 0.0135457376
      0.00677738898 -0.013064865 -0.0112517048 0.0129205883
      0.00837031752 0.0115817375 0.0024549982 0.0159383863 0.0165145639
      -0.011373762 -0.0241895113 -0.00937168207 0.00963350199
      0.0111140599 0.0104073836 0.00509221572 0.0141057512 0.00453831814
      -0.0199564807 -0.00497521181 0.00192466681 0.0105564138
      0.00644090259 0.0138508361 0.0103509566 0.019079566 0.0167344529
      0.00351298228 -0.00233087875 -0.00617467612 0.00905048382
      0.00728568202 0.0102723083 0.0109033501 0.0152606275 0.00464957301
      -0.00376527617 -0.0242310837 -0.00611269288 0.000266693212
      0.00311185024 0.00735796522 0.00659388304 0.0182081163
      0.00520847505 -0.0221135896 -0.0156870242 0.0100394841
      0.0091227442 0.00338248583 0.00981577206 0.0128429011 0.0163150933
      0.00409339881 -0.0217277557 -0.000930717506 -0.00364617049
      0.00124318653 0.00108000136 0.0100614633 0.0075852233 0.0147070298
      0.00419333111 -0.00122344727 -0.00061687344 0.00412917882
      0.0127094779 0.0136030987 0.0119900815 0.010289765 0.0158452839
      0.00774002168 -0.0042147059 -0.0150226578 0.00136387616
      -0.000759872142 -0.00786022656 0.00203479733 0.00612054393
      0.00620843377 0.000898440077 -0.0133031579 0.00240546162
      -0.00521815754 -0.00896864943 -0.00931062642 0.00240481342
      0.00203480991 0.0119638564 0.00888809096 0.000471951964
      0.000403019279 -0.00591572654 0.00410716794 -0.000717345858
      0.00598064577 0.000913222728 0.0064029661 0.00382589456
      -0.000702946796 0.00758166611 -0.00928417873 -0.00775279291
      -0.0126918759 -0.000312528369 0.00409452291 0.0135951508
      0.0175710153 0.0078303013 0.00311531825 -0.0127964197
      -0.0149765927 -0.00343943969 0.0092962021 0.00383806857
      0.00967057701 0.00858000759 0.00489246333 -0.00919232797
      -0.0156862903 -0.0270107947 -0.00802985579 0.0198376123
      0.010441592 0.0163042378 0.0190361608 0.0094314618 0.00239357143
      -0.0128541775 -0.0192424953 -0.00739971362 0.00837069936
      0.0110575436 0.0143239684 0.0169557817 0.0103284912 0.00643059518
      -0.0160668846 -0.0287602842 -0.00510192011 0.0184495486
      0.0161302816 0.0141055752 0.0147513738 0.0125184972 -0.00623879861
      -0.0157308578 -0.0211122595 -0.0133841187 0.0144271329
      0.00897663832 0.0139011461 0.016909251 0.00814513583 -0.0110664424
      -0.0109218787 -0.00202782359 -0.00346913305 0.0147270272
      0.00756729348 0.00961445272 0.0090678446 -0.00931492168
      0.00651584985 -0.0170504022 -0.0189960711 -0.00949488953
      0.0135077098 0.00815362856 0.00956720766 0.0155958338 0.0119638406
      0.00368882529 -0.013672905 0.00199993397 -0.00501694391
      0.00801037718 -0.00888555963 0.00542750955 0.0138978818
      0.0031347177 -0.0178016853 -0.00965343602 0.00162110443
      0.00734029803 0.0166552216 0.00328736869 0.0109351315
      0.00592879485 -0.0145395938 -0.0181822628 -0.0113473963
      -0.00856644195 0.0014754727 0.00701307366 -0.00121136487
      0.0148042757 0.00810449012 -0.00814122707 0.000741339463
      -0.00630516931 0.00232878816 0.00279443339 0.000991780078
      -0.00871071778 0.0102505879 0.00965855084 -6.34567259e-05
      0.00211327593 -0.00305083347 -0.00455640117 -0.00537822722
      -0.00143691374 -0.00558386976 0.00995440781 0.00970041566
      0.00607818039 -0.00731199235 -0.00659419922 -0.00699488446
      -0.00132067781 0.00786701776 0.00458410475 0.0111871576
      0.00488819974 -0.0100063439 -0.00209213304 -0.0056328564
      -0.00607410679 -0.00255352235 0.00327401678 0.00349190226
      0.0060675377 0.00207365141 -0.00358539005 0.00267804437
      -0.000798184308 -0.00195632782 -0.00492544472 0.000779517228
      -0.00230141962 0.00478059007 0.00449022558 0.0056135268
      0.00428221095 0.00346623687 0.00170121493 -0.0042128535
      0.00237314752 -0.00457787886 0.00294366945 0.00297961617
      0.00608586054 0.0208438169 0.00868301 -0.00961250905 -0.0332382917
      -0.0356155373 -0.00268560275 0.0105149522 0.0132528283
      0.0229547359 0.00134132663 0.0131454775 0.00969078206
      -0.0206278879 -0.0276229065 -0.00454173191 -0.0142598972
      -0.0162081681 -0.00494384859 0.0156391691 0.00855598506
      0.00784837455 -0.0109868636 -0.0192731023 0.00932783633
      0.0237871073 0.0194155537 0.020055702 0.0148465186 0.0172741357
      0.0236068089 0.00539313117 0.00298815104 0.0160405207 0.0158689823
      0.00539464829 0.00426801806 -0.0137779042 0.0175893102
      0.0222169198 -0.00297253183 -0.010557496 -0.00454692682
      -0.00156543835 -0.0217628106 -0.0196465161 -0.0329486839
      0.0241767336 0.0212807097 0.0166304596 0.0141321216 0.00380027876
      0.00919373054 -0.0119266622 -0.0291834697 0.00693557644
      0.019162735 0.0255907457 0.00506510399 0.00196655816 0.00952917058
      0.0193613805 0.017263025 -0.00186571933 -0.000503167044
      0.0192479827 0.0266919192 0.017080592 0.0155216558 0.0117612798
      0.0218324214 0.0223974753 -0.0131412232 -0.0425546728 0.0271924753
      0.0236193035 0.018451089 0.0216075871 0.013806697 0.0171132665
      -0.0021992852 -0.0526791811 -0.0412032232 0.0296925548 0.024574507
      0.0130110728 0.0200130362 0.0174645577 0.0221303999 0.00347094238
      -0.0599164404 -0.00784715917 0.0258643422 0.0303383246
      0.0238135047 0.0265616588 0.0172278006 0.0200018734 0.0129785296
      -0.0227295682 -0.00613825349 0.0349769667 0.0341446735
      0.0266216155 0.0305888914 0.0220838841 0.0207788926 0.012099742
      -0.025308216 -0.0394124314 0.00572079932 -0.00275327428
      -0.000748136255 0.0162214953 0.0118387006 0.0136362575
      0.00977623928 -0.0533255823 -0.027652109 -0.0133516751
      -0.0147060798 -0.00531026768 0.00326577085 0.00916215684
      0.0110687828 0.0135898339 -0.0243536532 -0.00347764161
      0.0254941452 0.0230543129 0.0165878907 0.0271377917 0.0151339211
      0.0170981493 0.0145895416 -0.0154815093 -0.00449013617 0.015721608
      0.0213592499 0.0235568509 0.034761738 0.0217360668 0.023778826
      0.0207708254 -0.00063811877 -0.0169108082 -0.0193353184
      -0.0356149226 -0.0192414336 -0.0244075861 -0.00632645143
      0.000103889048 0.00401607808 -0.00791483466 0.00415972061
      -0.00664566876 -0.00313969003 -0.00475900294 0.00157055969
      0.00837985426 0.0120827379 0.0116655286 0.0104897972
      -0.00772167509 -0.00526992092 0.0136934007 0.0194465313
      0.0170481745 0.0146726705 0.0117396452 0.00793310162
      -0.000662700215 0.0086768344 0.00676397886 0.0197745096 0.0143831
      0.0181811657 0.0169900879 0.0156958122 0.00798924826 0.00960725825
      0.00647636037 -0.00439210329 0.000697871321 -0.00831771363
      0.0021347052 -0.00513451127 -0.00239687762 -0.00325068063
      0.00282618054 0.021026073 -0.00138391054 0.000926156819
      0.00117132289 -0.00423075166 -0.0124018425 -0.00976032764
      -0.00223809062 0.00705000246 0.00442652637 -0.000304331683
      0.00705140643 0.0101655209 0.0176240783 0.00846470799
      0.00930531975 0.00384268817 0.00115554244 0.00924894959
      0.00452161813 0.00442549028 0.00214947411 0.00369255617
      3.16264632e-05 0.0107453801 0.0191282015 0.0140172578
      0.00972257275 -0.00962683465 -0.00964372326 0.0012950158
      0.00265963422 -0.00564544788 6.92819376e-05 0.00404568901
      0.00513173267 -0.00409508124 -0.00772926444 -0.00675132684
      0.00194598339 0.0139590651 0.00168515951 0.00699379807
      0.00590230338 0.00167332252 0.00887454301 -0.00100936252
      -0.00502813747 0.00404299656 0.0116390586 0.00227612327
      0.0120661287 0.0160453133 0.0141507452 0.00281996722
      -0.00705107022 -0.00863620825 0.0061530876 0.0127937589
      0.00758428825 0.00331606437 0.00911708176 0.0120314676
      0.00236433791 5.5867662e-05 0.00738114351 0.0087712938
      0.0170135964 0.00890023261 0.0132996272 0.00835758168
      0.00456307549 -0.00886571221 -0.00817205478 0.00892546307
      0.00831988454 0.011395501 0.00197450863 0.00626707403
      0.00521360291 0.00652918592 0.000920937804 -0.00564386789
      -0.00498723239 0.0078993747 0.012596813 0.0115825739 0.0140852416
      0.011877167 0.0149550075 -0.0111596743 -0.0130537394 -0.0136537012
      -0.00901409797 -0.000336543191 -0.000499066489 0.0131060239
      0.0154692959 0.0139839789 -0.00735268788 -0.00331520825
      0.00953929499 0.00729206298 0.0136190373 0.00606091926 0.01356366
      0.0133105405 0.00537768099 -0.00941750314 0.00209870376
      0.0111325216 0.00659095589 0.0131982099 0.00913865305 0.012347714
      0.00644230144 -0.0108390525 -0.00888875592 -0.00544991158
      0.00192712247 0.00171131361 0.00805295724 -0.000383815874
      0.0128102554 0.0129696708 0.00187007152 -0.00922027044
      0.00230343989 0.00533456309 0.00279932586 0.00113683089
      -0.00158341008 0.00838232879 0.00668268511 -0.010469364
      -0.00847720541 -0.00117286376 0.00200306391 -0.000593657605
      0.00949311629 0.00583725935 0.00824228209 0.00626048306
      -0.0143628381 -0.00241389289 -0.00213282509 0.011440549
      0.0107460413 0.0115130786 0.00588571467 0.0113101201 0.00451579411
      -0.00588063383 -0.0108196717 -0.00871530361 -0.00675085699
      0.000723575067 0.00519305561 0.000421158329 0.0116070658
      0.00985236 -0.00901868753 -0.010900218 -0.0135111092
      -0.000709169311 0.0125953909 0.01541238 0.00329864863
      0.00667492347 0.015485771 -0.000977278221 0.0013422108
      0.00059315213 0.00995255727 0.00416538259 0.0018243111
      -0.00306380307 0.00359261525 -0.000312082557 -0.00206743088
      0.00231561647 -0.00568335364 -0.00449862704 -0.0103771659
      -0.00752468361 -0.00220386032 0.0091342805 0.0143994428
      0.00677446462 -0.00302421907 -0.00759584736 -0.00241139624
      0.00219478901 -0.00145257136 -0.000440448464 0.00350474799
      0.00763695408 0.00707208505 -0.000644001004 -0.0100434665
      -0.0129665453 -0.010062363 -0.00640012091 0.000869609008
      0.00973900128 0.0142841525 0.0120626101 0.00484635821
      -0.0043406398 -0.0163762178 -0.0116760591 0.000793999585
      0.00606746459 0.0145543655 0.0142244482 0.00864051003
      0.00852617435 -0.0012654392 -0.0187996272 -0.00531880092
      0.00758715114 0.00947058946 0.0110535081 0.00962015521
      0.00723862369 0.00705551216 0.0014520844 -0.00747484155
      -0.0130989775 -0.00713880453 0.00594483688 0.0149669303
      0.019303184 0.00871415995 0.0141474493 0.00647882698
      0.000209174133 -0.015100426 -0.00450741407 -0.000932484923
      0.0102991927 0.00558737339 0.00124734838 0.0107181799
      0.000233646992 -0.00580933364 -0.00235600397 0.0076616141
      -0.00188701868 0.00047648637 0.0108231576 0.0116233416
      0.0100283874 0.00409778114 0.00236208946 0.00384616526
      -0.000567142968 -0.0144910002 0.000189697821 0.0149330851
      0.00764984079 0.00929165538 0.00692296261 -0.00141409843
      -0.0108852377 -0.00662504043 -0.00756865507 -0.00245473557
      -0.000594273151 -7.37645532e-05 -0.000889093615 -0.00324099325
      -0.00143198913 -0.00190106197 -0.00411296776 -0.00809434894
      0.00297601591 0.00735023711 0.00337910675 0.00643490488
      0.00666616391 0.00492665777 0.00196358212 -0.00775980437
      -0.0130360676 0.00665287906 0.0103851166 0.000584626861
      0.00571627961 0.0112736644 0.00254009105 0.000103052538
      -0.0040159272 -0.00528020691 0.00547664007 0.00359237241
      0.00245159003 -0.00743538747 0.00387428794 0.0053643533
      0.000949939946 -0.0087823607 -0.00156806631 0.00658699777
      0.00162290991 -0.00839579478 -0.00626314431 0.0131567717
      0.01345741 0.00896192528 0.00141846109 -0.0022235685
      -0.00267562852 -0.015923541 -0.0184784085 0.00244329753
      0.00300729671 -0.00198019086 -0.00671047112 0.000223361101
      -0.0044717053 0.00279538333 -0.00470061321 -0.00217883824
      0.00486862008 -0.00111128716 -0.000472234038 -0.00843246747
      -0.00111368205 -0.0124722309 0.0010629273 -0.00369447027
      0.00326911174 -0.00615526922 0.00229614461 0.0150059005
      0.00509480666 0.00171823183 -0.000462473807 -0.00643583015
      -0.0238146558 -0.0212337784 0.00290031522 -0.00386721501
      0.00757136336 -0.000391109672 -0.00441892305 -0.00150166836
      0.00383168855 -0.00700511783 0.00371313584 0.00877953693
      0.00677353377 0.006308123 -0.0243579317 -0.0454843268
      -0.00987562537 0.0181398764 0.0194998626 0.0186019503
      0.00122554088 0.00304287137 0.0168844406 -0.00493273092
      -0.0198045205 -0.000718653726 0.0123474095 0.0161594991
      0.00564110046 0.00729647232 0.00979886856 0.00798003562
      -0.0169178601 -0.0451852083 -0.00504508056 0.0232833289
      0.0191930812 0.0164208096 0.0106522292 0.013363638 0.0160584562
      -0.0013432065 -0.0206592828 0.00284173153 0.0196969304
      0.0245647393 0.0200858135 -0.0102496715 -0.00235626684
      0.00643043872 -0.0179042127 -0.0146719823 -0.00768885156
      0.00294261053 0.00700246403 -0.00400413061 -0.00963211153
      0.00382219255 0.00975454692 7.78808226e-06 0.00407543732
      -0.000666550419 0.00259893527 0.00523263263 -0.0112889931
      0.0104977246 0.0115322648 0.00944541488 -0.0140143093
      -0.0183077287 -0.00722327363 0.00502379704 0.0189518724
      0.020298345 0.013039073 0.0156781059 0.0143099213 0.0100006917
      0.0109700216 0.000509810983 0.0061286916 0.0092697423 0.01643309
      -0.0239268709 0.00145179068 0.00870608259 0.000598017534
      0.00716370018 -0.00248400331 -0.00391266681 -0.00834461674
      -0.0349839926 -0.0159133431 0.00195993297 0.00889167842
      0.00960821565 0.00855199154 -0.000641769031 -0.00164086791
      -0.00853551738 -0.0180015545 -0.00162694382 0.000913675758
      0.00727135781 0.00989944953 0.00471977657 -0.00428328477
      0.00285850326 0.000178070914 0.00406256737 -0.002484611
      -0.00410045031 0.00808166433 0.0114085339 0.0097164195
      0.00262322603 0.00668866839 -0.000543086557 0.00878689345
      -0.00778274192 0.00447685178 0.00544533134 0.00480003329
      0.00486598257 -0.00756473234 -0.00488389097 -0.00675309217
      -0.00854135212 -0.0189385694 -0.00769741647 0.00355713768
      0.0176561344 0.0119292699 0.00343598449 3.18423772e-05
      -0.0124923298 -0.0122586554 0.0065494054 -0.000846672338
      0.00377026992 0.00505234534 0.0067902375 -0.00159971544
      -0.00205994444 -0.00185710716 0.00966670923 -0.00341885444
      -0.0125016887 -0.0043307133 0.007424118 -0.0012688766
      0.000604567467 -0.00285493396 -0.00436918251 -0.00112498039
      -0.0107871369 -0.013226727 0.0120394034 0.0202904064 0.0111117
      0.00925649796 0.00202412321 -0.00673527643 -0.00415839395
      -0.00540893897 -0.00786748715 0.0105596408 0.0115228612
      0.0117207933 -0.000204210563 -0.00654836651 -0.0118812816
      -0.0073819682 0.00107118418 -0.00893976633 0.0060462933
      0.0136583261 0.00222910382 0.00512651075 0.000397947297
      0.000820218236 0.00764553808 0.00625251886 -0.00439742487
      0.0186134558 0.0119429305 -0.000347645546 -0.0120751858
      -0.00629784539 -0.00470668171 0.00586872129 -0.00956640206
      -0.0112611046 -0.00139899261 0.0105600897 0.0132521614
      -0.00273830839 -0.000503692136 -0.00404667528 -0.00569852442
      -0.00968158711 -0.0120003521 7.04620907e-05 -0.00262010633
      0.00097108871 -0.00522762584 0.00794903003 0.00734085497
      -0.000148983279 0.00816956908 -0.00498377439 0.0165770482
      0.0163467135 0.0015627949 -0.00981567428 -0.00203512167
      0.0031786894 0.00653335638 0.00230746344 -0.00461248262
      0.00563257234 0.00465258677 -0.00248846249 -0.0117225945
      0.00640562735 0.00408729212 0.00507118646 0.00239562988
      -0.00266684848 0.0011222699 0.00376059418 0.0118235061
      0.00245428644 0.0133918347 0.00957990717 0.00752778118
      0.00846548844 -0.00678937882 -0.0117283724 -0.00538845174
      0.000962836784 0.00234620855 0.00352344383 0.00880416017
      0.00724199368 0.0145160034 0.00536496891 0.00228522555
      -0.00229597371 0.00349304965 -0.00336341397 0.00735095795
      0.00314533059 0.01001871 0.0180813111 0.00585352164 -0.00783666316
      -0.0280138999 -0.00903072208 -0.0119530037 0.00662810542
      0.00471313298 0.00684338668 0.00846793689 -0.00673437864
      -0.00305986917 0.00152990839 0.00850339793 0.00780895678
      0.0149572212 0.0141802514 0.0150286285 0.00129790604 -0.0146170938
      -0.0150074335 -0.014784053 -0.00392668601 0.00540087465
      0.0154197766 0.0188272372 0.0138820466 0.0134072602 0.00855427142
      -0.000950284419 -0.0155574949 0.000999422977 -0.000705648912
      0.0133199245 0.0124032358 0.0104910135 0.00953907985 3.6747595e-05
      -0.00709881587 -0.0123241441 -0.00461300742 -0.008870285
      0.00515027158 0.0107551701 0.00779481838 0.000179852592
      -0.00102212781 -0.00379351946 -0.00406736881 0.0120015824
      0.0101471022 0.0125522893 0.0139341094 0.00214152224
      -0.000296363985 0.00483853789 -0.00361429481 -0.00494531449
      0.00206616102 0.00374910282 0.00696879858 0.00540150097
      -0.00648225704 0.0107245753 0.0113872308 0.0033568528
      -0.00537443114 0.00417428929 0.00536462106 0.00654689642
      0.00868924987 0.00569639495 0.0183162317 0.0103103807
      -0.00684178108 -0.0180651005 -0.0152527066 -0.002604882
      0.00384476571 0.00563469715 0.00456982013 -0.000996244955
      -0.00765177002 -0.00763065508 0.00257560844 0.000649571419
      -0.000991834211 0.00917330943 0.0118131097 -0.00112889137
      0.00421780581 -0.00864338968 -0.00571221858 0.0206270143
      0.0157733746 0.00442265766 0.00191252201 0.0134575991 0.0110976975
      0.0161318444 0.0109665236 -0.00234530098 -0.0116256513
      -0.0158115122 -0.0120412437 -0.00668797782 0.00624992 0.0100416495
      0.0174719356 0.00519697601 -0.00339011289 -0.00184812571
      7.10403256e-05 -0.00189855974 -0.00327017088 0.00888059102
      0.0215636361 0.00349989277 -0.00725960173 -0.00545016816
      0.0125939846 0.00485911267 -0.00342754554 -0.00687680626
      0.00111727614 0.00853824336 0.00972949807 0.00216429983
      -0.00157217309 0.00169527612 0.00388595182 0.00904645957
      0.00138875446 0.00122752564 0.00850835815 0.0114361281
      0.00390425767 -0.00604957668 -0.00727396039 -0.00568511849
      -0.00337426574 -0.00757010328 0.00387889799 0.0143413031
      0.0150882332 0.0132929217 0.00123804307 -0.0110417521
      -0.00290015549 0.00730222324 0.00571257668 0.00272490038
      0.0150925191 0.00843953621 0.0101890666 0.00250186864
      -0.00793134421 -0.00755016785 0.00105958839 0.0121790767
      0.0154838264 0.011380842 0.0164912213 0.0144607062 0.006477925
      -0.00979225244 -0.00712801144 0.00106921559 0.0163453985
      0.00948363263 0.0118614351 0.00698981434 0.0162320118
      0.00950973481 -0.0141519792 -0.0114930505 -0.00297159888
      0.0109432163 0.0039548818 0.00604269188 0.0105832145 0.0101098381
      0.00662211841 -0.00493450835 -0.00362994918 -0.00224608928
      0.0164130107 0.0110414475 0.00235218089 0.0130855478 0.00482651079
      -0.00105120149 -0.00629833387 -0.0043723979 0.000353352312
      0.00680052722 -0.00267329835 0.00129239389 0.0067824591
      -0.00490804482 -0.00292308559 -0.00874827988 -0.00121078489
      0.0023192463 0.00928293914 0.0036885913 0.00317611569
      0.00713573908 -5.00909882e-05 -0.00389367645 -0.000119868811
      -0.00549750589 -0.00105317717 0.00860224292 -0.00179116195
      0.00411734078 0.00902176928 9.4003175e-05 -0.00209792657
      -0.0112430332 -0.00420103688 -0.000801534159 0.00394374458
      0.000340389961 0.00748924958 0.00227320124 0.00173636118
      -0.000832288701 -0.00833534449 -0.0144463163 -0.00079957972
      0.00856586546 -0.000397363561 -0.00261071813 0.000894412631
      0.0127284816 0.0129399262 0.00490171742 -0.000849489355
      -0.000816471351 -0.00408870261 -0.0114580374 -0.00970832258
      0.0102271549 0.00505944248 -0.00134619884 -0.015264269
      -0.0116933351 -0.00300310832 0.00131445017 0.00394436996
      0.00874363538 0.0104562864 0.0126738558 0.0141510367
      -0.00300044264 -0.0099090226 0.000233455634 -0.00299885543
      0.00457879761 0.00946161523 0.00237918901 0.00675629219
      0.0150493272 0.00387616805 -0.00426020334 -0.0043977676
      -0.00716442475 -0.0181863941 -0.0114406878 0.00461695157
      0.00214594626 0.0145037686 0.000142503122 -0.00630588317
      -0.00576730771 0.000420346798 -0.00822537299 0.00432789093
      0.0168383904 0.0112551739 0.0148074394 -0.00746728433
      -0.0166814886 -0.013950076 -0.0123222182 -0.00360643491
      0.00660474319 0.0185969193 0.0149952937 0.0148466378 -0.0149318427
      -0.0192757919 -0.0289764106 -0.000867341179 0.00282586156
      0.0142414402 0.00341663929 0.00772383995 0.0109025622 -0.014544663
      -0.0485443622 -0.0129530746 0.0149055943 0.00638269261
      0.00544339698 0.0103759095 0.00844899844 0.00717946189
      -0.00362343038 -0.022036884 0.00158229889 0.0225365665
      0.0189017244 0.0124066379 0.0222910196 0.0162591189 0.0167427417
      -0.0173456594 -0.05108146 -0.0285745803 0.00688211573
      0.00706592249 0.0192384049 0.0267714746 0.0174230412 0.00891749188
      -0.0128967548 -0.0215870049 0.00536614517 0.0207689907
      0.0175164435 0.0231558364 0.00233535399 -0.0047644712
      -0.000736446644 -0.0187471006 -0.029020926 -0.0123552466
      0.0014123061 0.00983879529 0.00695499219 0.0024135143
      0.00275744149 0.00621015485 0.00774938427 0.000734166708
      -0.00639364263 -0.00167971931 0.00119116448 0.00892235432
      0.0178858936 0.00908957608 -0.00237516081 -0.0147596793
      -0.0321902297 0.000396822812 0.00176859449 0.0098130377
      0.0154727651 0.0166328009 0.0162695106 0.00889262091 0.0131203271
      0.000511755235 0.00392851653 0.00122088997 0.00586744817
      0.0146598099 -0.0145707298 -0.00578597374 -0.00049328513
      0.00807244144 0.00518465461 -0.0101465806 -0.0031759073
      -0.00693535525 -0.0030527811 -0.016267024 -0.0128525719
      0.000883689441 0.00883314665 0.0100752916 -0.00402783463
      -0.00355771207 -0.00927037187 -0.00483572157 -0.00718156667
      0.00447464781 0.007354856 0.0120993117 0.00598157384
      -0.00157476356 -0.00201414572 -0.0065980088 -0.0034090043
      -0.00819792878 -0.00982548669 0.000257920416 0.00382943428
      0.000644732383 0.00291816774 -0.00280891825 0.00122257706
      0.000465743215 -0.00642865337 -0.0103849079 0.000307480834
      0.00532976305 0.00571005186 -0.00688708248 -0.00771050435
      -0.00627743686 -0.0026020424 -0.0063857357 -0.0149897011
      0.00166590931 -0.000462514872 -0.00599228637 -0.0132882949
      -0.0141662005 -0.0112923747 -0.00257118489 0.00112356828
      -0.0108435238 0.00302857999 0.00348179229 -0.000601868029
      -0.0035309454 -0.00404741708 0.0115702851 0.00962257385
      -0.00309532182 -0.010508013 0.000403469574 -0.00232516835
      -0.00436967378 -0.0212906413 -0.0100521138 0.00220228289
      0.00769537967 0.00126802712 -0.0117703043 -0.0013988798
      0.00138532813 -0.00950760394 -0.00823933166 -0.0070910519
      -0.00588586088 0.0067680222 0.00919766724 -0.00729038427
      0.0047178762 0.00599679397 -0.0214245543 -0.0129473209
      -0.00513484562 -0.00468006171 0.0060198959 0.00196485617
      -0.00463339873 -0.00141105638 0.000725584221 -0.00448048674
      -0.0157003421 -0.00536769861 -0.00163939723 0.00699697947
      0.00185074226 -0.00143826893 0.00249869563 0.00515065109
      0.00131109112 -0.0101104267 -0.000876061327 -0.00268334453
      -1.58971725e-05 0.00771566387 -0.0071757338 0.00867878553
      0.0121561801 -0.0106200194 -0.0100152893 -0.00544256391
      -0.00304756407 0.00971051678 0.00278381119 -0.00861333217
      -0.00124840916 -0.00256207515 -0.00977121014 -0.0186899751
      -0.00874607265 -0.00664675888 0.00515238196 -0.00355515769
      -0.0026101151 0.0068757073 0.0113886772 0.00237885187
      -0.00501934718 0.00171012885 -0.000242164941 0.00314556691
      -0.00653852848 -0.00671901321 0.00345571362 0.00323611218
      -0.00395659544 -0.0107171619 -0.00373294158 -0.00516858185
      -0.00131149043 0.0194935482 0.0116611188 0.00361137977
      -0.00226805522 -0.00219722884 -0.00688177487 0.00219634944
      0.00169738568 0.00991318375 0.0161972214 0.00998566393
      0.00492334785 -0.0224821493 -0.0198868588 -0.0118455561
      -0.00367626781 0.00273035909 0.00774894189 0.011333243
      0.00986463856 0.0120760743 0.00744425412 -0.00248586922
      -0.00402944582 0.00845056865 0.00932575855 0.00344784511
      0.00869712234 0.0077649625 0.0170972683 -0.000392338989
      -0.0114056217 -0.0191849694 -0.0157660916 -0.000207644189
      0.00265108864 0.0157504845 0.00837490987 0.0128789004
      -0.00922160596 -0.00854146387 -0.00802447274 -0.00164292089
      0.00489815976 0.00723920716 0.013393838 0.00996825285
      0.00988465175 -0.00415818999 -0.0143329808 -0.0222565755
      -0.0054208627 0.00198200974 0.0029561203 0.0220366903 0.0193644259
      0.0264372341 0.0122693293 0.00201324862 -0.0166010801 -0.016275676
      -0.00710797356 0.0118212365 0.0209069103 0.0272519384 0.0277087931
      0.0113573344 -0.0118564628 -0.0239091683 -0.0201227963
      -0.0110122673 0.000165744437 0.012961233 0.0107403174 0.0151326619
      -0.0018547232 -0.0110255089 -0.00973580498 0.00155660009
      0.00424644025 0.00443395926 0.0157068409 0.0148212407 0.011905794
      -0.0210908614 -0.0330727063 -0.0202454869 -0.0035573435
      0.00603382662 0.0122014238 0.0149756288 0.0281979125 0.0309387445
      0.0145395035 -0.00310905022 -0.0129840672 -0.00343075115
      0.00368441944 0.000931544637 0.0151121439 0.01968427 0.0343900993
      -0.00342979189 -0.0164485015 -0.0279966611 -0.00714369956
      0.0161160622 0.0110685918 0.0213221926 0.0188574903 0.00921625737
      -0.0227340236 -0.0325834975 -0.0102488324 0.00309340586
      0.0121717053 0.0197585654 0.0190027822 0.0170392953 0.00435055466
      -0.0132958367 -0.0153620578 -0.00238471897 0.00692481874
      0.0031698558 0.0209777616 0.012386566 0.0160591565 0.0232933331
      -0.0162419192 -0.0260257833 -0.0117453411 0.00430768915
      0.0184960328 0.0192622282 0.0163304023 0.0233799461 0.016607482
      -0.00410406711 -0.0139858713 -0.00653344067 0.00830483064
      0.00748422369 0.0183625836 0.0133345285 0.0110171679
      -0.000354384712 -0.0128747597 -0.0130946059 0.000723215286
      0.00247045886 0.000232795937 0.0126401111 0.0108609656
      0.0132211195 0.00356113701 -0.0143837705 -0.00577431871
      0.00722897286 0.0112183401 0.00135912281 0.012281849 0.0137389526
      0.0241194908 0.00508791255 -0.0142750833 -0.0104177846
      0.00393349724 0.00484713819 0.00549748261 0.00758578721
      0.0114412718 0.0139249535 0.00673647132 -0.0126985619
      -0.00122898119 0.00922712032 0.0122099239 0.00294104288
      0.00827208161 0.00668222969 0.00814883504 0.00808029994
      -0.0155346245 -0.018475011 0.00142403634 0.00930181425
      0.00313688139 0.00478311116 0.0064367801 0.000800643465
      0.00374914706 -0.0038422551 -0.00778087461 -0.00809255335
      0.0100698816 0.0102288472 0.00271688937 0.0105164722 0.00426235935
      0.00275769969 -0.013516183 -0.0136546968 0.00843435153
      0.0138381356 0.00784984417 0.00687715039 0.0129296109
      -0.00138107361 0.0024863861 -0.00709870644 -0.000550749828
      -0.00265385909 0.0122520523 0.0187996086 0.01702765 0.00492497813
      0.000548310752 0.00141089095 -0.000602679851 -0.0113341082
      -0.00936538912 0.00576577568 0.00539749768 0.00283162086
      0.00865183771 0.00327739934 -0.00273002451 -0.0093230959
      -0.0137923444 -0.00696182298 0.00336033292 0.00756318308
      0.00638151448 0.00671519525 -0.00276207435 0.00209320127
      -0.00944265909 0.00054469984 -0.011415611 0.00801180117
      0.0196904615 0.0143763786 0.00833614729 -0.00284107449
      -0.00129463035 -0.00736274617 -0.00712011103 -0.00615428807
      0.00515800668 0.0183756705 0.0139710214 0.0148678953 0.00806142669
      -0.00247114059 -0.0194004793 -0.0168526024 -0.00645777956
      0.00184066233 0.00706058834 0.0122543992 0.0161099918 0.0101677021
      0.00678847404 -0.0100366594 -0.00978089683 -0.00240575708
      0.00448208395 0.0139516573 0.0172939077 0.0148538882 -0.0014710346
      -0.00351947872 -0.0150074763 -0.0141090797 -0.00702902023
      0.00434951438 0.01143819 0.0192958303 0.0135104526 0.0067282524
      0.00809568819 -0.0114832129 -0.00799652189 -0.00738668302
      0.0103310039 0.0178370923 0.0220635682 0.013180986 0.00766718294
      0.0118305292 -0.0159596838 -0.0175940115 -0.00533378543
      0.00375858578 0.00796442199 0.0123858294 0.0165229533 0.018939402
      0.011744665 -0.017832581 -0.030090943 -0.0188042428 0.005569709
      0.0127362395 0.0134946639 0.00955009274 0.00738093536 0.0146304602
      -0.0164553132 -0.0208372138 0.000887945818 0.0100420592
      0.0110114962 0.011586532 0.0207417775 0.0170100573 0.0155019453
      -0.01569435 -0.021507062 -0.0102097001 0.00612123031 0.0162888058
      0.0130929844 0.0255684908 0.0175127387 0.0148886396 -0.0159556568
      -0.043637719 -0.0334373675 -0.000852142693 0.0105944527
      0.0245572664 0.0297661815 0.0230621006 0.0101090576 -0.00659311656
      -0.0165770929 -0.00185386173 0.00749866292 0.0184929073
      0.0277404282 0.0276320856 0.0166621301 0.0136888102 -0.00655004615
      -0.043482665 -0.0374687761 -0.0206256434 0.0022341453 0.0199981835
      0.0294799842 0.0211290717 0.0141953491 0.000132711764
      -0.00926444866 -0.0175423753 -0.00343807763 0.0152757894
      0.0225785095 0.017618604 0.0133080566 -0.0051005464 -0.0146671245
      -0.0316765644 -0.0090601882 -0.0100338589 0.00563120097
      0.0141681125 0.0181335583 0.016751267 0.00242370064 0.0036248595
      -0.00529838866 0.00395255629 -0.00291036302 0.00176284648
      0.0116426675 0.01194245 0.0094182333 -0.00180767535 -0.015821293
      -0.0310542732 -0.0284819268 -0.0156259891 0.000498137611
      0.00820640102 0.00419102004 0.0123106418 0.00229187869
      0.00164468074 0.00241631083 0.00700404309 -0.000742767472
      -0.00317163789 0.00401633838 -8.97598147e-05 0.00514127733
      -0.00207507517 0.000389143301 -0.00597914495 -0.000322790729
      -0.000403909769 -0.00770411873 -0.00412414921 -0.00540064089
      -0.00437425682 -0.00443180837 0.00134438847 -0.00108819734
      -0.000252428494 -0.00569561031 -0.00959654339 -0.00447946461
      -0.00473018177 0.00914076436 -0.00580846751 -0.00359657221
      -0.000930872862 0.0022274428 -0.000621527492 -0.00949368067
      -0.00130702928 0.00321787409 0.00592720881 -0.00431635929
      -0.00269046472 0.00156026264 0.00524770236 0.000255857216
      -0.0146186836 -0.00119796232 0.00256226724 -0.00860011205
      -0.00413098 -0.000885195914 -0.00149505516 -0.000112149421
      -0.00430028373 -6.0060036e-05 0.000887019851 -0.00875665434
      -0.0100966981 -0.007851501 -0.00400531199 -0.00745027838
      -0.0160554275 -0.00820759684 0.00181727216 0.00180818641
      0.00703676837 0.000131823705 -0.00260958984 0.000311005249
      0.00295394869 0.0072198594 0.000378598925 -0.00772764208
      -0.00179038651 0.00222998625 0.000257019041 -0.00316215795
      -0.00274779415 -0.00564080849 -0.00359661249 -0.00220468827
      0.00500969123 0.00855726376 -0.00787402689 -0.0076970486
      -0.000891280826 -0.00058235199 -0.00196227734 -0.0115834847
      -0.00532085355 -0.00173125067 0.00165715499 -0.0118134711
      -0.0125281671 -0.00586155476 0.00148122071 0.00929601584
      -0.0052498891 -0.00288404874 -0.0057459129 -0.0115077412
      0.00363020808 -0.000268824544 0.00355583406 0.000971419446
      -0.00615337724 -0.00395978568 -0.0010127842 0.0038768074
      0.00849099271 0.00178449997 -0.00460924814 0.00154583226
      0.00146122416 -0.000704642385 0.000944960397 0.00771053927
      0.00230192137 -0.00157838583 -0.0124225719 -0.00987776183
      -0.00175633794 0.0042325668 0.00164812035 -0.000145724713
      0.003902253 0.00185225334 -0.00930794887 -0.0116931098
      0.00221656519 0.00597527204 0.0037619425 -0.0105306813
      -0.0162689481 -0.00407126313 -0.00366144464 -0.0136807431
      6.63164756e-05 -2.02109477e-05 -0.000526492018 -0.00331782526
      -0.00199929369 0.00859710108 0.0128320558 0.0101729976
      -0.00241025165 0.00823396631 0.0136042451 0.00780808832
      0.00176140701 -0.00873768982 -0.00715021137 0.00184733456
      0.0113172261 -0.00162569666 0.00745644467 0.00970161054
      0.00972385705 0.0057920753 -0.0034149189 -0.0118909888
      -0.00375675317 0.00879094936 -0.000135997805 4.46847625e-05
      0.000909190974 0.00774999196 0.0104363319 -0.0100242132
      -0.036483027 -0.0429174118 -0.0135235507 0.000438126648
      0.0140489591 0.0193052012 0.0142336488 0.00878365804
      0.000576174061 0.00587309012 0.00493353652 0.0202360228
      0.015828779 0.00141242798 0.00717573706 0.00725897495
      0.00956030563 0.0137603721 -0.00894085318 -0.0201410446
      0.0020756356 0.0128612611 0.0165993292 0.0146091878 0.0168352611
      0.0180366505 0.00947037898 -0.0192731228 -0.0386222787
      -0.0143102901 0.0110167926 0.0154374326 0.0231274236 0.0213293452
      0.0140700629 -0.0010585197 -0.0225870628 -0.037427444
      -0.0233309884 -0.000910968229 0.0170538761 0.0117837675
      0.0150430398 0.019727733 0.0283361599 0.00205152528 -0.0152629372
      -0.00815253239 0.0145963002 0.0159931034 0.00979948323 0.020024715
      0.0157807227 0.0156595297 -0.000589142728 -0.0226158928
      -0.0291485321 -0.00395098934 0.012369819 0.0249019321 0.0258711893
      0.0144012449 0.00899623148 -0.0120223612 -0.00923797954
      -0.00508206757 0.00184100959 0.00919441693 0.0154842073
      0.0287918299 0.015908774 -0.0162049532 -0.0322914794 -0.0225704145
      0.00361132482 0.00911365543 0.0106781255 0.017705936 0.0272472203
      0.0196215715 0.0179325305 0.00732232956 0.00435372861
      -0.00723058078 0.00193909509 0.00654301746 0.0191646889
      0.0384261012 0.0261113737 0.0113060214 -0.01684184 -0.0175064113
      -0.00517201284 0.00845339522 0.00877363887 0.0126265949
      0.0274220612 0.00550931506 -0.0106723756 -0.0119320657
      -0.0159920324 0.00202132412 0.0114026982 0.00995188206
      0.0176560655 0.0186227858 -0.000986831612 -0.00608998165
      -0.00261711329 -0.00793835148 -0.00368661759 0.00610304112
      0.00347154401 0.0152883492 0.0290808734 0.0159198642 0.00894867256
      -0.000184164586 -0.0133481491 -0.00567610189 0.0059639439
      0.00963197276 0.0199627914 0.0183705166 0.0144644724 0.0144036571
      0.0120089222 -0.00651984056 -0.0152103705 -0.000488899299
      0.00883974973 0.018937232 0.00423735986 -0.00909082871
      -0.00964678638 0.00758808386 0.00219563115 -0.00429816823
      0.00311221997 0.0131707592 0.0177252535 0.00236358377
      -0.0128080426 0.00296174199 0.0112624923 0.00744556263
      0.00367170339 0.00400390616 0.00493805017 0.0188865177
      0.00392015185 0.00310497638 0.00791649893 0.00678616203
      -0.0124584911 -0.0267832112 -0.00486435043 0.0153020872
      0.027378846 -0.0011463929 -0.007093939 0.00473378366 0.00614956999
      -0.00299910083 -0.00485908147 0.0052506621 0.00432709791
      0.00380371697 -0.00294272881 -0.0175508223 -0.0069123609
      0.00488577224 0.00431459863 0.00381288212 0.00323900022
      0.00556421978 -0.00204599113 -0.00276805717 -0.0115961405
      -0.00961328018 0.00180715416 0.00696723862 0.010382358
      0.0162845049 0.00294980244 0.00309366058 -0.00225759321
      -0.0142029189 -0.0060899877 -0.00147680112 0.00253142626
      0.00134929491 0.00475962972 0.00443982473 -0.00308635738
      0.00173325383 -0.00420173863 -0.00152690103 -0.00104490784
      0.0110905878 0.00801069662 0.0100748045 0.00601531658
      -0.00487911096 0.00438679848 -0.0130217606 -0.0154646821
      -0.000443116092 0.0106584923 0.0186772682 0.0161854438
      0.00576939154 -0.00990673434 -0.0081900917 -0.0154959653
      -0.00791333336 -0.0017641054 0.0135970591 0.0185617208
      0.0142903673 0.00131541491 -0.00391245866 0.00223915698
      -0.0103508737 -0.00913050491 0.00725987647 0.0191922933
      0.0176240969 0.0117955301 0.000149445535 -0.00991100539
      -0.00747092394 -0.0147718536 -0.00977752823 0.00587405404
      0.0216651279 0.0195720326 0.0172496345 0.0127000343 -0.00464714738
      -0.00884361845 -0.0139323147 -0.0104229562 0.000412772293
      0.00802477263 0.0122243604 0.0163050462 0.0123923337 0.0047018202
      -0.00408467464 -0.0205240268 -0.0124889081 -0.00193182717
      0.00548230624 0.0123694055 0.0127118593 0.0114505636
      -0.00882501528 -0.00722341286 -0.00949008111 -0.0078133503
      0.00603634166 0.00966990273 0.0130844563 0.0207973439
      0.00737309502 -0.00469399197 -0.00664604036 -0.0113984337
      -0.00994123798 -0.00218771608 0.00624034274 0.00966638885
      0.0108998874 0.00737486081 0.0108371107 0.00962671638
      -0.0111458842 -0.0110706156 0.00417432142 0.00969427265
      0.00761726731 0.00226368546 0.0170085803 0.0156934448 0.0154953906
      -0.0126183294 -0.00958717614 -0.00483402237 0.00854312442
      0.00744627789 0.00742582232 0.000755040266 0.00277560367
      -0.00205517071 -0.00809304789 -0.00784241967 0.00251461915
      0.00448387396 0.00512591377 -0.00431545218 0.00451816432
      0.0162691828 0.0144064669 -0.00308671477 -0.00572007475
      -0.00215396937 -0.000826708041 -0.000183091426 -0.00131188042
      0.0176726617 0.0093519697 0.00716678146 -0.00405964023
      -0.0309967715 -0.0264816489 -0.0161651969 -0.0014674071
      0.0139159001 0.0216187127 0.0184024479 0.0119601302 0.00638758577
      -0.00538197439 -0.0133688701 -0.00022396601 0.0131781278
      0.0211050194 0.0167108458 -0.00395243242 -0.0126201529
      -0.0155282225 -0.0231529176 -0.0247865822 -0.0160303153
      -0.0058519505 0.0157466177 0.0230161902 0.0100191105 0.0024311624
      0.00429135188 -0.00400682166 -0.00709981006 -0.00219732127
      0.00252329139 0.019525595 0.0136945657 0.0140319131 0.00492165377
      -0.00611591805 -0.0231526401 -0.0248232931 -0.00837763119
      0.00529941777 0.008312447 0.00287089311 0.0167905595 0.00705476571
      0.00850610808 0.00542776193 0.00596239325 0.0037029197
      0.0100284703 0.00621354859 6.29835922e-05 0.00684249355
      -7.18451338e-05 -0.00449265959 -0.0200723428 -0.0246881824
      -0.01561251 -0.00127418537 -0.000590907293 -0.0162176322
      0.00651652506 0.00395549368 0.0118609881 0.00231465348
      0.00293882517 0.0100020673 0.0144139584 -0.00691658212
      0.00242509414 0.00871205423 -0.00155966228 -1.00677789e-05
      0.00338139338 0.00287709804 0.00382593716 0.0102943843
      0.0031713082 0.0152629027 0.00740319304 -0.000310945587
      0.00114784017 0.0018754804 0.00341527979 0.00439621555
      0.00444181636 0.00825543422 -0.0250503346 -0.00725207524
      -0.00441231998 0.00610082457 0.00607243553 0.00298642204
      0.0086119324 -0.00169223105 -0.0189766679 -0.0239305198
      -0.00999589358 0.000384927262 0.0111223124 0.0164765008
      0.00709575834 0.000838060863 -0.013808893 -0.0211578328
      0.00880089868 -0.00121470145 -0.000253304519 0.00211354019
      -0.000891791016 0.00498993741 0.00145830365 0.00491608353
      0.00393259013 0.0100493394 -0.00134649756 -0.00294264616
      -0.00617385888 -0.00142147532 0.00303547503 0.00103216246
      0.0129919611 0.00754864607 -0.0270797219 -0.0161194336
      -0.00299632433 0.00694168825 0.00475549279 0.00350011955
      0.00159556163 0.000390134344 -0.0184734166 -0.0174754355
      -0.0131175872 -0.00088417955 -0.00146322988 -0.00371241965
      0.001355235 0.00377778756 0.0151235852 -0.00813071243
      0.00847927947 0.001537545 -0.00119754695 -0.00636499422
      -0.00576762203 0.00217904593 0.00235590315 0.00594504364
      0.00992135983 0.00721585471 -0.000312814314 0.00181676925
      -0.00195696508 -0.0126187904 0.00213636877 0.00832071342
      0.00439393939 0.00767109683 -0.0179430488 -0.00604715664
      0.0049872119 -0.00101612962 -0.0013984273 0.00186387857
      -0.00438968511 0.00194879912 -0.0149618285 -0.0237863455
      -0.00363523699 0.00475557754 0.00477840938 -0.00518308813
      0.00351195154 0.00504009472 -0.00899511855 -0.0155344559
      0.00614995928 0.00167089642 0.00469541503 -0.000866796181
      -0.00680162944 0.00635939138 0.0119938897 0.00536404969
      0.004916145 0.00446545985 0.00330517581 0.000667456712
      0.00270709884 -0.0080143949 0.00268480019 0.00666861562
      0.00295840274 -0.00128253235 -0.0154097313 -0.00601382647
      0.00490379427 0.00800524838 -0.00724260136 0.0044678431
      0.010478138 -0.00472398801 -0.0142007126 -0.0156087466
      -0.0125992261 0.00449329661 0.0103530837 -0.00484775286
      0.0064836177 0.00657839421 -0.00971498247 -0.0239705797
      0.00467239087 0.00832989812 0.00644388702 0.00816233922
      -0.00318086334 0.00674023526 0.00527323456 0.00645266101
      0.00476055779 0.00280648493 0.00763191376 0.00567138661
      0.00970569719 0.00492079323 -0.00254261214 -0.0176481195
      -0.0132521978 0.00637848023 -0.013837656 -0.00310355169
      0.008769379 0.0130317295 0.000626158027 0.00636600982
      0.00697840517 -0.0028258427 -0.0110610342 -0.00884751976
      -0.0058807428 0.0116155669 0.0114140911 0.00588547857
      0.00573193515 -0.00409578439 -0.00665481109 -0.0102523826
      0.0134624727 0.0149983931 0.0150038116 0.013056145 0.0144336335
      0.00227601803 -0.0206307247 -0.0164117292 0.0044195205
      0.00201533479 0.00541441655 0.0161346886 0.014379872 0.00675606634
      0.00186199124 -0.0224656649 -0.0272998679 -0.0119681619
      0.000503165356 0.00560433883 0.0216485858 0.0174611006
      0.0150692491 0.00812358782 0.00185949961 0.00368025922
      0.0032912211 -0.00950150564 -0.00564889982 0.028245382 0.026317656
      0.0137708532 0.00830018241 -0.00306240167 -0.00565709686
      -0.0149407201 -0.00221354468 0.00895459298 0.0195389614
      0.0186752863 0.0119133433 0.0107800318 0.000458791386
      -0.0178067703 -0.00569167454 -0.0072775255 0.00972722378
      0.0282890871 0.0238333344 0.00894378684 -0.00799440313
      -0.0222976748 -0.0282612536 -0.00944775064 -0.0116679939
      0.00391837582 0.0279885158 0.0283046048 0.0196857043 0.0141828842
      0.00972402748 0.000492681691 -0.00919601414 -0.0157111939
      0.00293174898 0.0234743711 0.0282968283 0.0217007045 0.0116527174
      0.00395314395 -0.00429231999 -0.0154853361 -0.00340698822
      0.00664578704 0.0208303165 0.0177695155 0.0136419693 0.00995790586
      -0.010697634 -0.0196869299 -0.0042898762 -0.00389418262
      0.00598576851 0.010366288 0.0139088975 0.0170624666 0.0146356784
      -0.0202712864 -0.0336302668 -0.0181168057 -0.00180054386
      0.00804043375 0.0198239144 0.027487563 0.0213797856 0.0164517015
      0.00527833868 0.0047767763 -0.00501402421 0.0101015298
      0.0147614963 0.018840896 0.0271529872 0.0251528248 0.0163497534
      0.00375028374 -0.00769563811 -0.0114710266 -0.00195818511
      0.0114571461 0.00440699048 0.013398855 0.0195388868 0.0118672168
      -0.0158613492 -0.0363991782 -0.02164419 -0.00229485263
      0.0108152479 -0.000173752269 0.00130810612 0.0122586079
      0.00545784365 -1.29127193e-05 -0.017048208 -0.021464996
      0.0173744056 0.0141632427 0.0121873841 0.0224468075 0.0228843931
      0.00905890297 0.00901762862 -0.00849665515 -0.00637845602
      0.0104037737 0.0127013642 0.0117655322 0.0168937892 0.0241409279
      0.0119548896 0.0170813091 -0.00547634764 -0.00647678273
      -0.00908877607 -0.00262818229 -0.000471925014 -0.000833126134
      0.00385165005 0.00667399541 0.00983806606 -0.00633520121
      -0.0139339194 -0.0157650951 -0.00622554822 0.00323341438
      0.0110380817 0.00771083916 0.0042800759 0.0130584985 0.0028610148
      -0.00806585886 0.00153515907 0.00889490452 0.0139482422
      0.0142800836 0.0156528298 0.0113074454 0.0149493916 4.40278745e-06
      -0.00504701585 -0.00529906666 0.0274177641 0.0286533721
      0.0176645741 0.0105824359 0.00314132962 0.00216415757
      -0.00124041922 -0.00443998352 -0.0189865008 -0.0111947926
      -8.29978599e-05 -0.000808105455 -0.00252195657 0.00585725624
      0.0134701813 0.00801102351 -0.00420036027 -0.011882415
      -0.0156774521 0.00039090708 -0.00720972661 -0.0100373747
      0.00207629893 0.00324521982 0.0100839408 0.0111359069
      -0.00152001355 0.0179284755 0.0147908423 0.00300680543
      -0.00121252716 0.00383213744 0.000340177823 -1.86535672e-05
      -0.00840249658 0.0111827059 0.00694682496 0.0128443884
      0.00273902668 -0.00166071171 0.00421121018 0.00192948605
      0.0132219177 0.020885665 -0.00684932387 -0.0188118629
      0.000856559433 -0.00404101051 -0.00571089657 -0.00703021232
      -0.00760707911 0.00748456968 0.0127034178 -0.00203736662
      -0.00828674249 -0.00301487814 -0.00590549363 -0.01352116
      -0.0146897947 -0.0105970223 -0.00434370013 0.00445554312
      0.0110847671 -0.0056140665 0.0122667281 0.00337817008
      -0.00425647711 -0.00410827249 -0.00450403849 0.00794090983
      0.0244211964 0.0106864274 0.00788007211 0.0146013247 0.011173239
      0.00277142809 -0.00232526311 -0.00622906815 -0.000515564228
      0.015461904 -0.00164447003 -0.00769359013 -0.00639777491
      -0.00626740232 -0.00990129635 -0.004001786 -0.00981692132
      -0.0042508929 -0.0058704447 0.00546493428 -0.00418813899
      -0.00164824526 0.00089141191 -0.00804658141 -0.00965759438
      -0.0124408817 -0.00440587709 -0.000659891055 0.00833002757
      0.00435791584 0.0148003148 0.0115582841 0.00409321347
      -0.000133379683 -0.00535883289 -0.00934977829 0.0031247281
      0.0158921182 0.00388953602 0.0173666794 0.0121695474 -0.004993557
      -0.00438565062 0.00470968429 0.00165566616 0.00981707871
      0.0148421787 -0.00428202795 -0.0100429216 -0.00632125745
      -0.00791508239 -0.0203055982 -0.00793921575 -0.00307611283
      0.0151261352 0.0171481501 0.00490694074 -0.00237699482
      0.00671287579 0.0160957724 0.000158541516 0.00648072455
      0.00701593701 0.0154111367 0.00382753438 0.0054816436
      0.00374189601 0.000955844996 -0.00606851047 -0.0254434403
      -0.0342049412 -0.0226925053 -0.00572895538 -0.000487599405
      0.012687834 0.00760209747 0.00359635055 0.00688358396
      -0.00473578647 -0.00988618378 -0.0102121206 0.00358318724
      0.00544419605 0.00601234753 -0.00153146975 0.00351785193
      0.00453842431 -0.0114651639 -0.00377571327 0.00826613326
      0.00208022632 -0.00495074876 0.00902236998 0.0127235791
      0.0127918813 0.010982791 0.00731615769 0.00962624792 0.0144680943
      0.00364593929 -0.0104829036 0.00506293494 -0.000158884941
      0.00173605944 -0.00253743166 -0.0148707898 -0.0162455291
      -0.009446132 -0.00727258623 -0.0184443519 0.00682571344
      0.0136577496 0.016326813 0.0166005306 -0.000574174745
      -0.00316850189 0.00162802555 -0.022346992 -0.00842134748
      0.00770947291 0.0145451454 0.0126227969 0.0117920004 0.00816412363
      0.0100431833 0.0017689619 -0.00240321574 -0.0154231014
      0.00376372598 0.0187892821 0.0166491922 0.0197503008 0.0127594043
      0.00990018249 -0.000391036185 -0.00756066339 -0.0355144776
      -0.00252000568 0.0189773757 0.0181788057 0.0195020456 0.0072017503
      0.00617799861 0.00589642115 -0.0257968642 -0.0502541699
      -0.0146794952 0.0206308253 0.0187933017 0.0285903625 0.0173973292
      0.0209010839 0.0139680915 -0.0285333674 -0.0161098149
      -0.00211967598 0.00961321499 0.0123006888 0.0133675616
      0.00882928912 0.0155162923 0.0191513002 -0.00659180107
      -0.00666318974 0.00581156788 0.0131974472 0.0118251331
      0.00495564658 0.00448689936 0.0178263281 0.0239780154 0.0025343583
      -0.0520435907 -0.0178113896 0.0123082083 0.013754691 0.0238025114
      0.0151124801 0.0254749209 0.0195052344 -0.0337613039 -0.0364401564
      -0.00440825336 0.0168809891 0.0118971979 0.0189391878 0.0147382393
      0.0246454831 0.0149822356 -0.0311627425 -0.0155194234
      0.00731856562 0.0129947197 0.0113138417 0.00633920776 0.0102636265
      0.0120518645 0.0152057614 -0.00576635636 -0.0191209316
      0.00902026054 0.0125043411 0.0125150606 0.0100939628 0.0164771955
      0.011510889 0.00579269417 -0.00887515582 -0.0375798084
      -0.00767615763 0.0179723464 0.0178130567 0.0151834087 0.0187251959
      0.0188300814 0.00346607156 -0.0351698808 -0.0250163451
      0.00149467599 0.0231808014 0.0280392971 0.0217035804 0.0221433677
      0.0158016291 -0.00918655377 -0.0407246575 -0.0165266078
      0.0010351073 0.00628623646 0.0115148816 0.00519490987
      0.00725212088 0.0135571845 0.00158756378 -0.00980196055
      -0.0144154383 -0.00353090605 0.00592864677 0.0126253916
      0.0100955134 0.0124052186 0.0149660576 -0.00117704261
      -0.00866376795 -0.0156327188 0.00301183597 0.0154816061
      0.0255675428 0.0170909129 0.0114789587 0.00970509928 -0.0148334531
      -0.0352186896 -0.0182217117 -0.00323761674 0.00897462387
      0.0198269542 0.0167764835 0.0183117334 0.0129933208 -0.0116560711
      -0.0236690175 -0.00797376875 -0.000355031836 0.0126318559
      0.0127326297 0.0132562136 0.0100237066 0.00909350626
      -0.000246338721 -0.00668922113 -0.00472920761 -0.00372582092
      0.0110143758 0.00713201193 0.00987600256 0.0050699194
      0.00435851701 0.00819605496 -0.0013057763 -0.0153637864
      -0.0058771125 0.0116131054 0.0134524638 0.0108095752 0.0107077137
      0.00381049979 -0.00737519097 -0.0192754734 -0.0253052544
      -0.00955020171 0.0122452956 0.00998654403 -0.000442218734
      0.00207954273 0.000894792145 -0.00114019739 -0.0252769217
      -0.00031663035 -0.00100237771 0.01008185 0.00545698078
      0.00470333453 0.00591947045 0.00874458626 0.0137530547
      0.00186088879 0.00137274514 -0.00362131139 0.0134478277
      0.0136025148 0.00629279669 0.00244180462 0.00201727753
      0.00308053405 -0.00583501207 -0.0263827331 -0.000438647607
      0.0070546926 0.0094883712 0.00264712796 0.0057920129 0.00911572762
      0.00106734992 -0.0250016302 -0.0322333425 0.000198363457
      0.00892214011 0.0102101574 0.010704671 0.00683152489 0.00898500253
      -0.00629582349 -0.0340170972 -3.74544907e-05 -0.00419691065
      0.0168248285 0.017606087 0.0130907139 0.00277707772 0.00327094668
      -0.00204735529 -0.00915942807 0.000634638534 -0.00410141516
      0.00485460367 0.0118772341 0.00690284697 0.00167878193
      0.00499206688 -0.00136611809 -0.00791104138 -0.0235576481
      0.00315669109 0.0143562295 0.0143486392 0.0117677767 0.00743516581
      0.0161153506 -0.00241300673 -0.030838469 -0.0111042354
      0.00122929795 0.0086574303 0.0106162271 0.008113713 0.0020393203
      0.0136044938 -0.00212896918 -0.0200583376 0.00148095249
      -0.000891265692 0.0050030523 0.0118704494 0.0077408189
      0.00192556484 0.000372536859 -0.00177534879 -0.00373992068
      -0.0019623097 0.00604877109 0.00748981116 0.0118770925
      0.00779958209 -0.00729605043 -0.0132878004 -0.0129222386
      -0.00911389291 -0.0104705486 -0.000306309666 0.00452272967
      0.00836336613 0.014726392 0.0121632209 0.0153538883 0.00838716328
      -0.0126533313 -0.0115099531 0.00745764468 0.00668535847
      0.00766513636 0.0157924052 0.00461529614 0.00865278114
      0.00307040033 -0.019874515 0.00567812473 0.00516694877
      0.00416670274 0.00730541162 0.00654882332 -0.00654574018
      -0.00130985223 -0.0148243913 -0.013167345 -0.00864249095
      -0.00154070405 0.00416598655 0.000483564596 0.0111364322
      0.00336721633 0.00737445522 -0.00698294258 -0.0205142535
      -0.00293809921 0.0130231706 0.00507084979 0.00736114895
      0.0126600098 0.00200120197 0.00799142662 0.00459074182
      -0.0144277886 -0.0103129847 0.00592133822 0.00756872026
      0.0083155008 0.0174897425 0.00884272903 0.0127107799 0.00804384798
      -0.0139083322 -0.0110096782 0.00365354051 0.0126564354
      0.00892216433 0.00761302467 0.00242530438 0.00924430881
      0.0025295401 -0.0184816755 -0.0136719588 0.0142202349 0.0185632594
      0.00840272568 -0.00271044555 -0.0127123399 -0.00558727607
      -0.00529424706 -0.0210017972 -0.0093264943 0.0146744596
      0.0188614242 0.0187642053 0.0112495292 0.00601188745 0.0113850404
      0.00859519374 -0.0155151207 0.00204525795 0.0191589482
      0.0193878394 0.0151436729 0.00502264546 -0.000889767252
      0.000556699059 0.00596067775 -0.0121217249 0.00590332085
      0.0130262943 0.00882524066 -0.00184677076 -0.00455798861
      -0.0071734041 -0.00920566823 -0.00339579419 -0.0154585391
      0.0140576819 0.008065111 0.0106718 -0.00224627671 -0.00029397328
      -0.00337570487 -0.00684602512 -0.00194387708 -0.000338118378
      0.0120448172 0.0166840944 0.0114873387 0.000419171149
      -0.000877962564 -0.0019018125 -0.00236668065 0.00422679307
      -0.00773930224 0.0095357364 0.0228481181 0.0224529058
      0.00212909211 0.00259170006 -0.000565296796 -0.00783167686
      -0.00299415807 -0.0067249313 0.00369315664 -0.00161571475
      0.0139504112 0.0041158353 -0.0027948576 -0.0055036745
      -0.00878572185 0.00123108586 0.00840865634 0.00246639666
      0.00676204357 0.0157478619 0.00350651145 -0.00281609315
      -0.00264266855 -0.00212341361 -0.00981863867 -0.000440565142
      0.00268045533 0.0127148833 0.0156248063 0.00576427719
      0.00157883717 -0.00148397661 -0.0128524788 -0.00722310925
      -0.0108437426 -0.00220906641 0.0191497318 0.0125321997
      0.00176041666 -0.00201813923 -0.00549472123 -0.00443873135
      -0.000167900187 -0.00353493891 0.00609903969 0.0118231773
      0.0196726229 0.00292854756 -0.00225264905 -0.00279069971
      0.000677135482 -0.0107870027 -0.00958112255 0.00555360643
      0.00645080023 0.0166746639 -0.000139304248 -0.0176139176
      -0.0108984644 -0.00152177876 -0.00395173207 -0.00908853114
      0.00303663919 0.0202770177 0.0159633197 0.00825075153
      -0.00368770794 -0.00771070924 -0.00156526617 -0.00089108682
      -0.00490111997 0.00248230202 0.00964758359 0.00949178636
      -0.00461715367 -0.0127682444 -0.00902434997 -0.00202847016
      -0.000306593516 0.00292199943</_></support_vectors>
  <uncompressed_sv_total>63</uncompressed_sv_total>
  <uncompressed_support_vectors>
    <_>
      0.132969052 0.262106389 0.262106389 0.130377889 0.0736438483
      0.0254500564 0.0106609827 0.0146817276 0.0635043085 0.262106389
      0.262106389 0.262106389 0.110194407 0.0686580092 0.0355026834
      0.0291741416 0.0450726897 0.262106389 0.0390778445 0.0616804622
      0.145181432 0.148535028 0.157114252 0.150624439 0.10604886
      0.135957003 0.058146473 0.262106389 0.168891758 0.200992614
      0.133122936 0.124947838 0.166724667 0.232295603 0.262106389
      0.262106389 0.339453906 0.0893991813 0.039060384 0.0108311484
      0.0160828363 0.0215212964 0.0374145508 0.0518043675 0.339453906
      0.339453906 0.0324194431 0.0155600542 0.00145902764 0.00680521922
      0.0122530637 0.0258299764 0.0364364795 0.339453906 0.339453906
      0.0861941278 0.0492349491 0.0158858374 0.0216514859 0.0486839041
      0.107578605 0.128406376 0.339453906 0.339453906 0.0803668648
      0.0320090391 0.00389871956 0.0106336037 0.0212685503 0.0498236157
      0.0727817789 0.339453906 0.347310394 0.0167093519 0.00908118766
      0.00250167004 0.00479903119 0.00576433679 0.00990208331
      0.0258171428 0.347310394 0.347310394 0.0451925248 0.00566141307
      0.0102865957 0.0180851854 0.028150754 0.0201376863 0.0492563099
      0.347310394 0.347310394 0.058226157 0.0172949694 0.0133822076
      0.00889808219 0.0136977239 0.02947505 0.0551301315 0.347310394
      0.347310394 0.0560111217 0.0217665993 0.0409605578 0.0447740369
      0.0516943522 0.0317957103 0.0720653757 0.347310394 0.316452801
      0.0725686699 0.00782816671 0.00505369017 0.0195939969 0.0240479726
      0.0132739889 0.032077428 0.316452801 0.316452801 0.0577800944
      0.0134814056 0.00574059365 0.03574384 0.0263109822 0.086159125
      0.23710534 0.316452801 0.316452801 0.101580285 0.0287748687
      0.0161276944 0.0396367051 0.0371040627 0.0186185986 0.0471526869
      0.316452801 0.316452801 0.222482473 0.124327451 0.0336052626
      0.0719688982 0.0404282287 0.0849589184 0.148227826 0.316452801
      0.236201406 0.0384253971 0.0296614319 0.0212719198 0.122017279
      0.083820723 0.228739306 0.270641357 0.270641357 0.217726097
      0.0233296696 0.0174308438 0.0210141353 0.0910593495 0.0676555112
      0.0811044797 0.109919481 0.270641357 0.189459085 0.270641357
      0.270641357 0.139052629 0.270641357 0.122279093 0.225124523
      0.240418017 0.200816885 0.0476651154 0.0908476561 0.147273421
      0.11536821 0.219849914 0.097886242 0.0843402892 0.0671123415
      0.103470899 0.421120495 0.0535384826 0.0154622877 0.0144012664
      0.0317669883 0.0253789555 0.0121446094 0.0919266045 0.421120495
      0.421120495 0.0334710591 0.006788678 0.00476167211 0.0158461612
      0.00830435939 0.0168080851 0.0747051984 0.421120495 0.167070583
      0.0853910521 0.0903429165 0.047618825 0.0682453141 0.0618072748
      0.020495696 0.0753711462 0.277190208 0.227374151 0.0608758964
      0.0443542749 0.0156432912 0.0252989084 0.0439823009 0.0533169024
      0.0863027275 0.240745038 0.434981912 0.024964381 0.0100300582
      0.00645527802 0.0202740151 0.00546383299 0.0153466742 0.0453284271
      0.434981912 0.434981912 0.0577730089 0.039394103 0.0101028532
      0.0231212787 0.00734062912 0.0194780473 0.0642180294 0.434981912
      0.166519552 0.038987536 0.0361128226 0.0185536444 0.0144976564
      0.0234368872 0.053278055 0.0648773909 0.244943291 0.228496149
      0.0541240387 0.0765008479 0.0296682622 0.0188929457 0.0350113325
      0.0573625788 0.0686702132 0.234680563 0.423664331 0.0609536804
      0.0320854746 0.00713575259 0.0255092196 0.00765172066 0.0143788802
      0.0601092353 0.423664331 0.423664331 0.0543098375 0.0137756839
      0.00835424755 0.0415068008 0.0097473301 0.0101118656 0.0564786531
      0.423664331 0.23723641 0.0510110334 0.0533979312 0.0307452381
      0.0178011786 0.0345877856 0.0437292792 0.0813908949 0.214598089
      0.25849703 0.0494774617 0.0342793465 0.0448827967 0.040742781
      0.0308014508 0.0479329452 0.0935661867 0.235067844 0.360604107
      0.0622399934 0.0157222338 0.0150028663 0.0304031949 0.0134159038
      0.0198370218 0.0649840161 0.360604107 0.360604107 0.11806263
      0.0864132494 0.0661475509 0.0505614206 0.0104173413 0.0463674068
      0.120724097 0.360604107 0.174227685 0.0323761404 0.0378386155
      0.044234544 0.051162608 0.0442799143 0.0520519987 0.103550106
      0.169811442 0.138383403 0.0744498894 0.360604107 0.354167908
      0.123761289 0.0565927885 0.0658719018 0.0931047946 0.166402787
      0.201116979 0.108757131 0.161641881 0.158709839 0.0666015521
      0.0173832588 0.0160138756 0.0424016304 0.24450767 0.0853209645
      0.137620538 0.325446457 0.325446457 0.146267682 0.0470148884
      0.00900538359 0.0196030531 0.0671884269 0.0548656583 0.0965328068
      0.325446457 0.325446457 0.0995616466 0.0684831813 0.0251137521
      0.0109264776 0.0364922322 0.0340843275 0.147017106 0.325446457
      0.325446457 0.188019201 0.208535135 0.0639278665 0.0210918058
      0.0335355066 0.0161158945 0.144602507 0.304333538 0.304333538
      0.0799290836 0.0231068693 0.0130918259 0.0104972832 0.0198019929
      0.0137081025 0.225167423 0.304333538 0.27386117 0.0826523602
      0.0227327161 0.029785797 0.0228140857 0.0380411409 0.0256500132
      0.19343558 0.304333538 0.304333538 0.13850227 0.0966234878
      0.0628975853 0.0551563278 0.110773921 0.0380133092 0.244423285
      0.304333538 0.304333538 0.140419707 0.0144412378 0.0700875744
      0.0547974259 0.0942184702 0.0576008819 0.290392935 0.290392935
      0.290392935 0.151531175 0.0592908263 0.0370887816 0.0273245722
      0.0340584852 0.169414178 0.251576602 0.223937511 0.175944939
      0.114248052 0.052047126 0.0424432606 0.0123174367 0.0636797696
      0.0807920992 0.290392935 0.290392935 0.290392935 0.14191106
      0.0510960929 0.106755994 0.0827705786 0.0974571407 0.127294928
      0.234495282 0.272304386 0.141830251 0.103154659 0.0576173253
      0.0898941457 0.0634432435 0.120993964 0.156123802 0.175451785
      0.178207457 0.0994628295 0.0878673643 0.0346049704 0.0307374336
      0.00873967167 0.0632007644 0.282075018 0.342368871 0.342368871
      0.0964713469 0.0515472032 0.0089185657 0.013145132 0.00377725041
      0.0456241556 0.0829517245 0.222011656 0.342368871 0.170622543
      0.131506339 0.028789673 0.0476024635 0.0138101969 0.0421146825
      0.174749821 0.342368871 0.342368871 0.248387173 0.06244082
      0.0164183509 0.0267019812 0.00417260593 0.0332938395 0.317031115
      0.317031115 0.204916716 0.04680508 0.0144154849 0.000609136478
      0.0077457088 0.0115312189 0.0805868134 0.317031115 0.317031115
      0.0762040839 0.0357806571 0.0251369886 0.00906459522 0.0278171767
      0.0629498288 0.255148709 0.238267332 0.317031115 0.306188077
      0.118069097 0.0194305368 0.0116948141 0.017165469 0.0083140647
      0.0571469553 0.317031115 0.238215536 0.0828358233 0.0702495798
      0.0580891743 0.055909168 0.0325256363 0.0386334583 0.137344897
      0.329878956 0.329878956 0.0805241913 0.0385615975 0.035875354
      0.0084937783 0.0227012839 0.0419976339 0.20135352 0.329878956
      0.329878956 0.254685998 0.0882192999 0.0373933688 0.0123348832
      0.0198950544 0.0858030394 0.329878956 0.217313439 0.103911661
      0.060393896 0.0472590402 0.0734308437 0.0515254773 0.035256248
      0.0521152802 0.103595443 0.103485703 0.168258458 0.307871819
      0.234283447 0.155164987 0.0788676813 0.0833713338 0.0517476499
      0.0568694435 0.0915259793 0.0192824919 0.0482614748 0.0881642252
      0.131905347 0.178000718 0.199419633 0.320119441 0.120788403
      0.359204978 0.0967507735 0.0685513318 0.0521694086 0.0966331512
      0.180238768 0.359204978 0.359204978 0.359204978 0.0635275915
      0.023438761 0.0480496511 0.0657230914 0.0523144938 0.0296932198
      0.0366726071 0.0525222607 0.0586201623 0.245154008 0.0804709345
      0.0598445237 0.0352405868 0.0708178431 0.0267590098 0.0947776884
      0.184527844 0.23321341 0.396102577 0.0856553242 0.0343581326
      0.013910695 0.0154326912 0.0332915932 0.128256872 0.253090948
      0.396102577 0.396102577 0.0986302346 0.0269266516 0.0122731328
      0.008828355 0.0125531293 0.0340673402 0.0956381336 0.396102577
      0.217674911 0.0667360276 0.0339009799 0.036319688 0.0323424004
      0.0128684286 0.0363380909 0.0729279742 0.206626251 0.269140601
      0.0529706404 0.0293812789 0.0357608646 0.0183448084 0.00644118292
      0.0144051742 0.0228107758 0.270934165 0.417127192 0.0663552955
      0.0184821635 0.0161077455 0.00727216387 0.00783616025 0.0241790041
      0.0706401989 0.417127192 0.417127192 0.0520369038 0.0263466854
      0.0339954533 0.0282185916 0.0252732672 0.0176387038 0.068595849
      0.417127192 0.232318953 0.0202602148 0.022854127 0.0147303557
      0.0163868815 0.00522157131 0.00695071928 0.0165632702 0.225871235
      0.304912657 0.0221392959 0.0244302135 0.00636183284 0.0132881543
      0.0109524187 0.0108452812 0.0271851998 0.275934637 0.382178038
      0.11820478 0.0310558714 0.0127955051 0.0229897741 0.0161343869
      0.010397492 0.0415855646 0.382178038 0.382178038 0.382178038
      0.184728339 0.0352819562 0.0376675837 0.0175410509 0.023969911
      0.0333505273 0.382178038 0.265981048 0.0349352211 0.0229607187
      0.00537397619 0.0093787685 0.0085000908 0.0125235124 0.0239035003
      0.219062746 0.239044294 0.0777424723 0.0302303359 0.00696825795
      0.0171545763 0.0146914897 0.0171519089 0.0175367165 0.150705934
      0.384794563 0.384794563 0.384794563 0.213418514 0.233562812
      0.0646780431 0.0635147095 0.0372142568 0.292904079 0.0751441792
      0.228294566 0.32101956 0.187223956 0.204126135 0.0603270307
      0.0257708076 0.0353681743 0.0772894472 0.205726027 0.149411187
      0.06863828 0.0122445282 0.036595583 0.0202401076 0.0200503953
      0.028169252 0.105590969 0.0752190426 0.0782511234 0.0715559274
      0.0169712547 0.0319273137 0.0127646225 0.0104839718 0.0247738715
      0.0685333386 0.177602574 0.233163595 0.362927109 0.134908363
      0.18765448 0.104543231 0.0331357531 0.123579964 0.230622157
      0.205640003 0.191631958 0.187334448 0.0765873119 0.123158589
      0.108126834 0.137821361 0.181268752 0.155830622 0.238818318
      0.219695777 0.22175625 0.0856095105 0.144627184 0.0351175107
      0.0342219025 0.0611298792 0.195815712 0.22219561 0.185186699
      0.179694548 0.0858192667 0.152270079 0.0536382906 0.0881451815
      0.10047476 0.16063118 0.182912722 0.174039379 0.115013964
      0.0499261096 0.04201857 0.073737748 0.198647961 0.248421073
      0.155341864 0.257736802 0.153306618 0.144693524 0.0705084726
      0.115780175 0.16190432 0.20349291 0.202841103 0.254204631
      0.189829186 0.179216772 0.119180165 0.0549945235 0.0742044225
      0.0805265009 0.132814914 0.205740958 0.193621665 0.181497678
      0.213501275 0.14723897 0.0831677169 0.144156992 0.154702753
      0.166469812 0.213373572 0.244012147 0.198559463 0.074388206
      0.0901866332 0.0889644101 0.0980413482 0.115481421 0.0998618156
      0.135882527 0.222474456 0.236367881 0.110574029 0.105695292
      0.149270326 0.138905525 0.0691954046 0.146756306 0.173073038
      0.234838411 0.189381838 0.136422217 0.130241305 0.0792925432
      0.131850466 0.16561988 0.1463864 0.087485604 0.152304769
      0.349410713 0.268507123 0.18955116 0.125322327 0.250541747
      0.185465559 0.197754547 0.107526772 0.179729745 0.0435305387
      0.0370193832 0.0590325966 0.0673324317 0.0450382233 0.0331407525
      0.0433435962 0.0643919706 0.0591181926 0.0230706688 0.094164595
      0.421972036 0.421972036 0.182210907 0.0594842806 0.0357632302
      0.0484588332 0.0309848469 0.0497911461 0.0903722718 0.143523976
      0.203781873 0.100128405 0.0427128896 0.0315826871 0.025711637
      0.0412168801 0.0543282442 0.22179547 0.421972036 0.421972036
      0.255283892 0.0388305113 0.0407943837 0.0112329023 0.0171486735
      0.0437111296 0.120300204 0.266697377 0.266697377 0.0814249068
      0.0454309098 0.0203632433 0.00478009228 0.0146472165 0.100125961
      0.266697377 0.266697377 0.178386956 0.0819856822 0.125606477
      0.0542718656 0.0262733214 0.0795118138 0.165363193 0.266697377
      0.266697377 0.266697377 0.0940930471 0.0218356736 0.0401771665
      0.0187074188 0.0628485307 0.266697377 0.266697377 0.266697377
      0.178453103 0.119269058 0.0500294678 0.0978862643 0.118976533
      0.266697377 0.0873049796 0.26879096 0.26879096 0.151789859
      0.0990420505 0.0867395848 0.0678751394 0.070048064 0.135137871
      0.0741530657 0.240977436 0.26879096 0.21170783 0.118472241
      0.0424931124 0.0679050535 0.0549247228 0.0802940503 0.129193947
      0.26879096 0.211138546 0.109908082 0.208157092 0.137171149
      0.191278592 0.238880649 0.26879096 0.0767166093 0.144416526
      0.134268999 0.0896596164 0.153746009 0.176793605 0.160629943
      0.196397409 0.144120529 0.0800014436 0.178085104 0.184080482
      0.208963141 0.122004822 0.056803219 0.0963218287 0.0608531609
      0.0875828415 0.107347928 0.156541422 0.24851425 0.207716018
      0.123416021 0.0525129586 0.113686837 0.0678974614 0.130178094
      0.100573711 0.1365114 0.198281348 0.210602283 0.136971384
      0.0816598833 0.109535359 0.151118875 0.111158669 0.154318973
      0.3200306 0.360414743 0.360414743 0.230417296 0.0290817413
      0.0855730549 0.0798135623 0.0993148908 0.0705194622 0.0847850814
      0.202529177 0.104956634 0.0658566952 0.0257906709 0.0497257225
      0.0748079643 0.140241787 0.0819414109 0.107491173 0.225958601
      0.0847280025 0.0330504067 0.0231953468 0.039521262 0.15074034
      0.316980422 0.155398637 0.172350898 0.317217588 0.317217588
      0.123057239 0.0274151638 0.047869388 0.140807286 0.315211236
      0.226857647 0.105438478 0.112344868 0.114105724 0.0576411635
      0.0628905892 0.0881257132 0.317217588 0.317217588 0.070409365
      0.098489508 0.121438757 0.0593181364 0.0239498466 0.0235782526
      0.0348898098 0.157126278 0.267055511 0.0590724051 0.0421588384
      0.0340678617 0.0347205214 0.0403275527 0.0617616251 0.0582593493
      0.0921489298 0.0832258165 0.12193536 0.0352405943 0.019683633
      0.0223635975 0.0315487422 0.0569546558 0.254121035 0.412881136
      0.412881136 0.0427561402 0.0205156207 0.0219231527 0.0170254521
      0.0365211368 0.0841581523 0.412881136 0.412881136 0.231469572
      0.0731812641 0.0458559915 0.0432381779 0.0600246862 0.0799090937
      0.0864317119 0.0565792173 0.0649558902 0.0582615808 0.074020274
      0.182551295 0.228690058 0.327892244 0.22566992 0.111591883
      0.0870814472 0.0416259207 0.0374786593 0.0547276549 0.0628202558
      0.0932721719 0.261104494 0.145893693 0.137068406 0.315379083
      0.327892244 0.0609664321 0.0603369102 0.19889462 0.22773701
      0.327892244 0.327892244 0.184524089 0.0540634654 0.0640670732
      0.0255914349 0.0833948925 0.0596717075 0.136696026 0.225523919
      0.213538393 0.142844543 0.106527686 0.0727189481 0.104112238
      0.125016406 0.183133006 0.187950119 0.175299972 0.24136284
      0.127301931 0.172092497 0.193150386 0.182364151 0.0650122166
      0.0785256624 0.0954112113 0.226981476 0.363181382 0.116768323
      0.105405129 0.0653005391 0.0778804943 0.104588628 0.17617093
      0.246735945 0.260875434 0.298444837 0.0770626441 0.107972756
      0.0873039663 0.0902623534 0.137095705 0.206983536 0.189956143
      0.234453008 0.247434005 0.0842531472 0.140377954 0.159833625
      0.126191124 0.174749941 0.202891812 0.174610049 0.23749204
      0.183138803 0.0408932753 0.096681498 0.0602512509 0.0868925229
      0.124845982 0.127158031 0.254653543 0.257198364 0.277761489
      0.0647938177 0.12116798 0.118335083 0.0902038291 0.184673578
      0.139964178 0.156285763 0.220386371 0.230434373 0.0621617995
      0.12339332 0.0797154307 0.108546816 0.162135929 0.169965237
      0.176545367 0.143129766 0.256048918 0.0876318589 0.0793141201
      0.0345330499 0.12718986 0.136226282 0.161783397 0.215646923
      0.124969848 0.286715508 0.150344536 0.129907191 0.111380316
      0.153094903 0.155541182 0.113548294 0.115436219 0.160193503
      0.275929242 0.119621426 0.16168043 0.0709963143 0.151587769
      0.0816386789 0.0514590815 0.168955192 0.238648117 0.345058531
      0.182002097 0.182741851 0.0888738334 0.126994327 0.0927601159
      0.180150136 0.194770753 0.110683836 0.158677861 0.0826528072
      0.134136349 0.166071072 0.0980097651 0.0729993135 0.142728508
      0.185281932 0.11967697 0.218916446 0.171634749 0.145779416
      0.138991788 0.072694689 0.098559849 0.132804081 0.241419092
      0.24564299 0.185651585 0.128063336 0.113718309 0.0582545623
      0.0740289614 0.112818755 0.23835665 0.329452604 0.252868801
      0.272365361 0.201357543 0.147916257 0.107177153 0.0912433937
      0.0540886186 0.0638642609 0.106996275 0.0465088822 0.17176491
      0.096274823 0.0540091023 0.0752483979 0.0718901902 0.175346762
      0.167416066 0.109718591 0.0520956218 0.121291362 0.0422351137
      0.0426560752 0.0854762271 0.146523446 0.157508075 0.132783949
      0.249733254 0.211320937 0.248900875 0.127815232 0.0996840149
      0.126689196 0.141648889 0.453415513 0.236396417 0.224079087
      0.225895658 0.189963371 0.0577028021 0.0643733889 0.227612376
      0.262442708 0.176069111 0.187471583 0.128817037 0.0719351321
      0.108273312 0.0325913839 0.0352372378 0.0627218932 0.122178003
      0.12677975 0.126547366 0.163991377 0.0734612644 0.128691211
      0.0507028662 0.0858501121 0.0980014801 0.145083919 0.432193637
      0.222364172 0.124773495 0.0928982571 0.0990704596 0.0363323689
      0.0685304999 0.193710223 0.286679834 0.23783347 0.199864462
      0.188389421 0.089077495 0.170340329 0.0954258442 0.196811348
      0.24624072 0.280344576 0.0984985083 0.105878919 0.13973552
      0.0537534952 0.110971391 0.0697543696 0.121487945 0.162967265
      0.155883878 0.119124234 0.186216831 0.162925258 0.0683068708
      0.104104757 0.110581502 0.191861689 0.178244591 0.179270551
      0.19594501 0.195180893 0.236137718 0.174091026 0.204322606
      0.107221268 0.156060219 0.238083676 0.166825771 0.232536972
      0.203730494 0.2148415 0.133431643 0.10119006 0.146168575
      0.269641519 0.166797414 0.217472225 0.130708113 0.170656428
      0.114589714 0.0600123443 0.10617543 0.148032278 0.168082342
      0.0547822416 0.0848911628 0.200399652 0.327937633 0.197370678
      0.136230811 0.250337929 0.205206841 0.143823937 0.0377797522
      0.111668013 0.12081667 0.154655233 0.126980618 0.123028718
      0.126521215 0.132398754 0.182205394 0.0893350244 0.104332045
      0.108653024 0.232828349 0.279946268 0.285709351 0.245910451
      0.185046241 0.155749694 0.0655914173 0.106298782 0.0173804928
      0.0499370471 0.0816178843 0.196416825 0.182723209 0.0337798893
      0.0100703929 0.00500495499 0.0150954397 0.028459385 0.153390348
      0.328689218 0.328689218 0.313201457 0.020771319 0.0211744513
      0.00743536931 0.00350049254 0.0135387955 0.028099468 0.0496081226
      0.151421338 0.328689218 0.11238838 0.0676518604 0.0283967759
      0.0161274988 0.0174885038 0.142042443 0.315268248 0.328689218
      0.328689218 0.173121154 0.183152929 0.14705728 0.0240296908
      0.148676187 0.276993245 0.276993245 0.273636281 0.085333623
      0.0152867036 0.0350893885 0.0182707012 0.0355305597 0.201700434
      0.276993245 0.276993245 0.235166982 0.17820318 0.0552988462
      0.0785807148 0.0854335949 0.180782527 0.0587480515 0.276993245
      0.276993245 0.161631659 0.134070724 0.0527815931 0.0943024978
      0.0636169016 0.0321620554 0.0990025252 0.276993245 0.275725514
      0.131926537 0.0461285152 0.0271270592 0.0476793647 0.0245131459
      0.0509293228 0.0511010848 0.115355939 0.128040299 0.197051749
      0.291313291 0.175990328 0.173920929 0.193233192 0.1530485
      0.0404572263 0.0333205834 0.0688258037 0.119200058 0.206545755
      0.216290221 0.201098904 0.266080707 0.133887261 0.0834412053
      0.229153812 0.212256715 0.158311546 0.100978576 0.0648533627
      0.0667841062 0.0684393123 0.0612466298 0.0843362138 0.258722842
      0.291313291 0.291313291 0.181419328 0.108976141 0.119575538
      0.112730451 0.0796202049 0.0262609273 0.0416565835 0.166045099
      0.17633301 0.0883711427 0.0334555283 0.0477179922 0.0778355002
      0.0468064286 0.0315547213 0.165038973 0.330299765 0.330299765
      0.131110102 0.00599058066 0.0128989741 0.0223589148 0.0110053923
      0.0273877569 0.259012759 0.330299765 0.330299765 0.105745181
      0.0286270846 0.031749025 0.0296059307 0.020038994 0.049643822
      0.330299765 0.330299765 0.330299765 0.140865698 0.0306828301
      0.0206681956 0.0181929749 0.00952905882 0.0959232748 0.207215384
      0.292638332 0.292638332 0.189862236 0.031403847 0.0461566225
      0.0857153758 0.139048964 0.167165741 0.0947710574 0.153187916
      0.195803389 0.103710011 0.0876310989 0.138460785 0.292638332
      0.292638332 0.0807661042 0.219233111 0.292638332 0.249208465
      0.161825061 0.0639382899 0.0852703005 0.083582148 0.0482696295
      0.128989115 0.0953830108 0.136339471 0.144606501 0.084063217
      0.0775711313 0.152519569 0.15892081 0.155483976 0.0739068687
      0.0268741995 0.0173331574 0.0359991342 0.0375519693 0.064253509
      0.230347574 0.33151567 0.33151567 0.0485538058 0.0316872932
      0.014277352 0.0261499882 0.0872118175 0.0907122269 0.33151567
      0.33151567 0.129548371 0.104942381 0.0664835796 0.0594333336
      0.0648958758 0.0587766878 0.0780739263 0.132303447 0.15033254
      0.120814957 0.0962784812 0.0661637112 0.0422743969 0.223348811
      0.274764687 0.211529598 0.25199607 0.33151567 0.0862530246
      0.0222468115 0.0176369343 0.0250263512 0.134752169 0.238308787
      0.0952482894 0.235355034 0.317348719 0.0367299728 0.00654821983
      0.0212198496 0.0391068943 0.284350395 0.317348719 0.0990331918
      0.0349081792 0.0670313686 0.0108378129 0.0269991849 0.0182372313
      0.0296596438 0.317348719 0.317348719 0.223660156 0.141656116
      0.239431456 0.0290458053 0.00344893709 0.00134282943 0.0432150438
      0.317348719 0.317348719 0.12849535 0.0303080138 0.0479033887
      0.00708639761 0.0432184674 0.0483987816 0.0968096629 0.164942011
      0.378904283 0.0985054076 0.121879466 0.0794466734 0.0524800569
      0.118820146 0.13688679 0.205334842 0.186057806 0.312574148
      0.0637086779 0.112416938 0.094385311 0.0461783633 0.0315405093
      0.0515192486 0.161352769 0.18858932 0.431969643 0.163698763
      0.126910016 0.0789985359 0.0406074822 0.0933676213 0.0820570514
      0.17356652 0.121385545 0.397031218 0.0902708769 0.0861012712
      0.0646675453 0.0355067626 0.112438269 0.151355684 0.174713075
      0.207495213 0.284562886 0.110618055 0.177301422 0.165616915
      0.0796734244 0.152464762 0.153025255 0.13020952 0.18505317
      0.205448925 0.103006355 0.176628113 0.136548862 0.171628818
      0.119797684 0.155653432 0.0915128738 0.103941426 0.232168689
      0.16011934 0.154869556 0.112243004 0.0860849842 0.155632898
      0.195713967 0.0998221114 0.186898783 0.216985732 0.255972713
      0.198727354 0.145184919 0.184442431 0.14596349 0.105860583
      0.143723547 0.1758672 0.201865882 0.0962505788 0.188478768
      0.102185458 0.165711105 0.130224496 0.114604577 0.191357821
      0.173139378 0.229357019 0.13658841 0.138743326 0.111292049
      0.143700033 0.209709242 0.178670466 0.186718822 0.182768196
      0.158045471 0.150130436 0.158429906 0.117884852 0.189332679
      0.254144073 0.270540744 0.228868768 0.109629542 0.14831993
      0.0659572035 0.082783103 0.14050734 0.207955688 0.109315149
      0.136860698 0.1681481 0.110281259 0.13007167 0.104043975
      0.0745609179 0.0551179163 0.087791957 0.122193821 0.167277455
      0.243265256 0.241675109 0.244078562 0.170690224 0.188991681
      0.126347944 0.146443367 0.151565313 0.236908019 0.160087854
      0.0852472261 0.117156819 0.0829662085 0.0905648321 0.0777311549
      0.131017357 0.137695715 0.188290715 0.265240163 0.220745966
      0.197298005 0.260261536 0.264466733 0.123388045 0.164997339
      0.107146479 0.105816871 0.222045258 0.217501119 0.212925419
      0.0794959515 0.120472215 0.0719384253 0.0789711922 0.235915378
      0.130628511 0.248585597 0.19148393 0.159047648 0.0657924414
      0.0918665156 0.108653516 0.120008789 0.115001313 0.0828448161
      0.177861989 0.133108109 0.168568924 0.13901329 0.190259039
      0.131803274 0.156609282 0.368961364 0.14079833 0.170672283
      0.119237885 0.12182048 0.0802576542 0.143621683 0.113951683
      0.337607354 0.204053327 0.0925508663 0.0923382491 0.054301735
      0.0892777368 0.0696987435 0.0923118889 0.10659676 0.142430544
      0.157301217 0.106073305 0.0938962549 0.0435488485 0.179269239
      0.114352457 0.209012181 0.191189066 0.12427593 0.401747406
      0.154429555 0.0992662981 0.0721444264 0.105283126 0.100805096
      0.0743030682 0.0480402857 0.276060343 0.423999876 0.252937913
      0.145814791 0.0607034713 0.161845863 0.121647045 0.149428263
      0.115666702 0.206127092 0.177181989 0.106683508 0.143285245
      0.106582001 0.173333138 0.101396412 0.170416504 0.188122854
      0.0824282095 0.205581605 0.0879259408 0.130972967 0.0961197019
      0.0695362091 0.0899488926 0.142671183 0.158413008 0.145656019
      0.422387362 0.222468987 0.153911129 0.0831816196 0.111886807
      0.0690754652 0.159320414 0.111176722 0.215165168 0.314727068
      0.169445977 0.11771331 0.109387606 0.0818611756 0.0504204407
      0.090827845 0.181671441 0.298770249 0.0982152671 0.052408848
      0.0656922534 0.0773885697 0.0829294249 0.11162883 0.14045164
      0.158445179 0.119801328 0.081972301 0.070667617 0.132735953
      0.161132053 0.136793196 0.189594656 0.191578701 0.169697389
      0.0945884809 0.217106268 0.105490126 0.0451000258 0.0277038142
      0.0615544207 0.0985548943 0.104941614 0.26028052 0.250251353
      0.220217705 0.0856332183 0.0561552756 0.027216509 0.0623620786
      0.202052906 0.183195457 0.428906888 0.414951622 0.0188747291
      0.0144176604 0.0216964819 0.0402238443 0.145722359 0.165625691
      0.136964828 0.0715136752 0.0149899134 0.0498961359 0.0476451702
      0.126528054 0.126241088 0.311567664 0.29404515 0.311567664
      0.311567664 0.180981323 0.038528081 0.0118360259 0.00625417382
      0.00433462998 0.0279260539 0.125214785 0.113773078 0.143059179
      0.0935265645 0.0850315243 0.0127266441 0.075734362 0.0510012433
      0.311567664 0.311567664 0.311567664 0.23753038 0.225058794
      0.108972423 0.0742642581 0.0918154046 0.0437715128 0.0984685719
      0.0612521358 0.107275739 0.104578301 0.267967165 0.307431579
      0.1315936 0.074601166 0.0194261558 0.0204687864 0.0179098193
      0.0532299355 0.0495533161 0.307431579 0.161228418 0.0569391027
      0.116990075 0.0513051637 0.288576454 0.307431579 0.18700546
      0.0938764364 0.307431579 0.307431579 0.156507447 0.147214234
      0.0443060659 0.0885374248 0.142316952 0.103788614 0.0742227659
      0.307431579 0.303207815 0.197991952 0.0804464594 0.0188310836
      0.00464742631 0.00467365514 0.0217947364 0.0334120728 0.152124032
      0.187428311 0.303207815 0.303207815 0.101609461 0.0226409715
      0.0153938606 0.0303923301 0.0343737714 0.0603150092 0.303207815
      0.249303177 0.124312624 0.0207330268 0.0027729501 0.0123442095
      0.0230026301 0.0511344336 0.303207815 0.303207815 0.303207815
      0.303207815 0.0446907319 0.0525259748 0.0442990474 0.0957532451
      0.153856173 0.133572951 0.0658152327 0.357274592 0.357274592
      0.202151433 0.0375870876 0.0262455456 0.0452193469 0.0264268387
      0.0420451164 0.0756125078 0.308949977 0.357274592 0.146766946
      0.0740112513 0.064162299 0.0446987823 0.0358383618 0.0313509107
      0.134029835 0.308841467 0.357274592 0.0990139022 0.135153905
      0.0611923859 0.141577691 0.138129026 0.148532853 0.102674328
      0.139761597 0.145433933 0.0934824497 0.109623611 0.0725568309
      0.0692559928 0.0520426929 0.0798329711 0.139964134 0.254992723
      0.245732218 0.222856671 0.124854699 0.127099335 0.110515125
      0.144527972 0.0685954839 0.208797649 0.199423984 0.184406132
      0.230945781 0.0882018134 0.117289811 0.167991534 0.135200411
      0.142285466 0.125635639 0.211705595 0.142234489 0.175395489
      0.141603693 0.143816084 0.0982169583 0.144081667 0.13223289
      0.194703117 0.222518012 0.181141317 0.199556991 0.135175437
      0.10911525 0.152622893 0.119046763 0.21481885 0.135474592
      0.112090737 0.111406676 0.110684194 0.0797246844 0.0783329159
      0.113706291 0.109603494 0.0849971175 0.0781370178 0.0897265375
      0.09919177 0.386779636 0.386779636 0.224341154 0.119175971
      0.140752882 0.0524727888 0.137567967 0.115429878 0.128982022
      0.144510835 0.0969025195 0.0696761906 0.0943616107 0.0569858588
      0.108904876 0.095372282 0.0732454509 0.147904962 0.386779636
      0.386779636 0.180181324 0.0581569038 0.0421353728 0.0665320978
      0.00759496912 0.0144697474 0.0368879922 0.342534184 0.342534184
      0.135437205 0.0289238952 0.025960708 0.00574101415 0.00182083726
      0.0141767329 0.0866317004 0.34101221 0.342534184 0.0617248639
      0.00757376757 0.00391378067 0.00175448437 0.0127369603
      0.0206873994 0.0621948242 0.342534184 0.342534184 0.0889360011
      0.00808659662 0.00415978255 0.00533250673 0.0224535521
      0.0522916764 0.131869599 0.32966271 0.342534184 0.0372946672
      0.00305092009 0.00174885767 0.00357243908 0.0586102009 0.122410908
      0.131976977 0.196095213 0.359019905 0.206301868 0.0871979594
      0.0534654222 0.0420239978 0.0271490738 0.0791732371 0.122733302
      0.111750253 0.333253264 0.140269011 0.096972391 0.0425580554
      0.01827907 0.0801186562 0.151988566 0.167026073 0.324585021
      0.301327288 0.171676815 0.117950521 0.0684287474 0.0308874119
      0.0243096091 0.152227834 0.215714127 0.237419114 0.21080178
      0.205033347 0.197878733 0.0673446059 0.00916417874 0.0583097488
      0.102006234 0.155088544 0.123826846 0.201103732 0.117779657
      0.095107697 0.0373564698 0.0408382379 0.128133804 0.205133617
      0.187302351 0.221437022 0.220005497 0.160291716 0.101085149
      0.0626683086 0.0818489641 0.0347387493 0.162370533 0.333656013
      0.274778664 0.232177064 0.153945684 0.142302692 0.0363749862
      0.0149691738 0.123512939 0.276299655 0.36619994 0.194313586
      0.149464294 0.0320169516 0.111931249 0.134747088 0.0665811002
      0.168878362 0.218375444 0.169897512 0.108245462 0.157580212
      0.0726498738 0.0737252086 0.0522920713 0.0979605094 0.231826127
      0.309874892 0.203281209 0.0769090354 0.0845609978 0.0172230694
      0.0714664906 0.101135984 0.156924546 0.153952375 0.257599205
      0.264099509 0.100986265 0.107261457 0.0181416515 0.103980802
      0.122147918 0.0838203207 0.292039335 0.357446104 0.277740508
      0.150258377 0.0815872401 0.0306601562 0.101185687 0.0978083313
      0.171088025 0.121270798 0.237002179 0.171769693 0.0958450288
      0.0645465925 0.0266424343 0.0798989683 0.0942161083 0.12092147
      0.113815099 0.200815558 0.293592006 0.168504372 0.0929496884
      0.11850062 0.107786685 0.0892613456 0.129403099 0.187155113
      0.285153925 0.270128578 0.150999382 0.0572910868 0.0178516284
      0.0658637583 0.0862399861 0.124974526 0.201417804 0.359640867
      0.391277492 0.198238045 0.0639975965 0.0219071209 0.0331261195
      0.0579061024 0.0917831734 0.152967215 0.0876467451 0.153417632
      0.0930729955 0.0546563566 0.095355995 0.081199728 0.104568459
      0.18036817 0.451281518 0.168961897 0.106552579 0.0729038343
      0.041393999 0.0401640609 0.0746591985 0.112502143 0.408750892
      0.19107689 0.25218901 0.159232005 0.0969488248 0.0335210375
      0.0271625426 0.012104176 0.0529016107 0.129157171 0.248222917
      0.32565549 0.135850027 0.0761225149 0.0258194637 0.0134318396
      0.0333059505 0.123975158 0.258390605 0.374896049 0.153642759
      0.0646861643 0.0378267579 0.056257695 0.0312900916 0.0227637496
      0.0340957977 0.23361437 0.351966828 0.238646254 0.10505034
      0.0284337793 0.0782194585 0.0359848887 0.0394879989 0.0629513338
      0.162734672 0.209272772 0.30400154 0.138712719 0.0229532737
      0.0223941002 0.00555434823 0.0161945503 0.0535537079 0.110995792
      0.403253794 0.410386533 0.131012008 0.00717397546 0.0404598601
      0.00559500977 0.0108655225 0.0293925237 0.103815719 0.261343956
      0.216921508 0.0826537758 0.0283250585 0.0239674635 0.0132728433
      0.0315282308 0.0419832729 0.148073822 0.242197484 0.224433944
      0.0548525229 0.0360523835 0.0218201037 0.0100535182 0.0202540588
      0.0630400553 0.243094161 0.406917721 0.351318121 0.0639392585
      0.00618539285 0.0124925254 0.00499754725 0.00772843044
      0.0345226005 0.183644429 0.406917721 0.322153687 0.0520931035
      0.0116166128 0.00424380461 0.012260464 0.024587851 0.0795537755
      0.250022113 0.287511617 0.198705614 0.0490513183 0.0104461173
      0.0176568683 0.0186910089 0.0307758078 0.126167923 0.236669138
      0.298823148 0.151712 0.0374295339 0.00358926086 0.0147375949
      0.0648229048 0.0964607969 0.376552254 0.368710339 0.326592356
      0.225315914 0.0593987666 0.0243515335 0.0300891642 0.0186446495
      0.0725548565 0.117494501 0.171213731 0.214594156 0.133105561
      0.0509106666 0.0600353256 0.0733126029 0.088245213 0.142427161
      0.237301394 0.146677569 0.0659391358 0.0206660107 0.00235204934
      0.00185364636 0.00836792495 0.081738174 0.122854464 0.256157935
      0.169058368 0.0799901336 0.0185812991 0.0320669897 0.0225591585
      0.319363683 0.38622421 0.38622421 0.226594552 0.193876237
      0.0768274739 0.0540763065 0.0156898648 0.0205809809 0.0222009663
      0.0452329852 0.0702836439 0.160021305 0.112347901 0.12708953
      0.08798296 0.0195376016 0.00716725411 0.0237434134 0.217566922
      0.354789048 0.212813333 0.28138265 0.0356770717 0.0259223618
      0.0408518463 0.0263830684 0.134335279 0.344072312 0.344072312
      0.0475150384 0.0778848231 0.168279201 0.106351443 0.10195411
      0.0537340678 0.0612990782 0.259812564 0.344072312 0.0854129493
      0.193396598 0.0137275234 0.0122624412 0.00528517971 0.00549109094
      0.00924998522 0.157953843 0.344072312 0.118377522 0.0411397293
      0.0296903662 0.0364906937 0.0263790637 0.0359926783 0.0356531478
      0.188591436 0.344072312 0.344072312 0.067232199 0.323108137
      0.168340385 0.163684055 0.0581142493 0.0254655294 0.0637174472
      0.139186814 0.0983387753 0.215784013 0.214600593 0.164747775
      0.120197751 0.0558159314 0.079712458 0.0594513007 0.114365526
      0.206098795 0.143943056 0.0923207998 0.0917788371 0.078683041
      0.093254149 0.0598363765 0.125662431 0.339814425 0.339814425
      0.180877805 0.151030809 0.151445284 0.0816438645 0.0749866664
      0.0554859415 0.103091493 0.188387245 0.339814425 0.197195321
      0.201074198 0.188074544 0.0955174491 0.119463474 0.216146052
      0.080201529 0.194049492 0.253351748 0.263730854 0.142096043
      0.149803668 0.0940913707 0.117758714 0.1553801 0.151914448
      0.105004877 0.0852084309 0.188317105 0.219961777 0.195154861
      0.13864474 0.0818691179 0.105023772 0.137900382 0.144802988
      0.216653183 0.261053115 0.171602979 0.217060715 0.210238278
      0.12440186 0.0962322429 0.144116566 0.0989449918 0.0892138407
      0.21161671 0.0716519207 0.135547355 0.0818723664 0.0840443745
      0.109593846 0.18019855 0.0975181013 0.0937026367 0.157297254
      0.108569108 0.140290886 0.0969471335 0.0839236304 0.128961012
      0.152165294 0.133210614 0.163061872 0.222744018 0.177168712
      0.197137579 0.148022458 0.113021344 0.0781790093 0.139232978
      0.114204854 0.153040916 0.267393678 0.283405244 0.283405244
      0.1487654 0.214615971 0.202237681 0.152182698 0.162232012
      0.229806602 0.283405244 0.0647100657 0.0625795051 0.063926816
      0.0811418444 0.0770176277 0.0552044585 0.0401483737 0.0461879931
      0.0825753212 0.0581744313 0.0463639796 0.0891341344 0.334684163
      0.334684163 0.131470621 0.0430244394 0.0186350886 0.053890191
      0.183313727 0.334684163 0.1134196 0.133789569 0.121525794
      0.0650344491 0.0415584631 0.056039881 0.112093687 0.148576885
      0.334684163 0.334684163 0.334684163 0.334684163 0.088080354
      0.035882704 0.0271478873 0.0756466687 0.0220179707 0.0302730352
      0.0792637318 0.372797996 0.372797996 0.111732371 0.0166276135
      0.00370658981 0.00800404698 0.0766359419 0.105889067 0.123610973
      0.263443947 0.313889176 0.0406951755 0.00500948308 0.00580575783
      0.0180939678 0.0275007915 0.173958689 0.222093984 0.372797996
      0.372797996 0.055222284 0.0350581333 0.0171302557 0.0129845627
      0.0527737699 0.0791220069 0.0947183147 0.233645275 0.212983921
      0.0604149811 0.0729049966 0.0645648018 0.0362754725 0.0882100388
      0.0871432647 0.134661615 0.219528496 0.203579292 0.0927973688
      0.118109219 0.0724665001 0.0367128588 0.0696847811 0.122389011
      0.229565024 0.264198512 0.171542183 0.130807787 0.136764303
      0.0844177008 0.0395518504 0.163462371 0.127621323 0.121033818
      0.092962876 0.154183879 0.167035088 0.222686663 0.248920113
      0.0807618722 0.189846858 0.17356874 0.247029528 0.21471405
      0.283536822 0.251146883 0.193408594 0.159015253 0.102797024
      0.067118071 0.103383429 0.230518788 0.254417449 0.144125998
      0.113223538 0.135151908 0.0670294091 0.0367735475 0.136861399
      0.147837102 0.211493954 0.144902766 0.0692683831 0.0396633409
      0.12334881 0.136423856 0.0640110672 0.162160233 0.172919527
      0.281812072 0.273679644 0.197751299 0.142788216 0.117132008
      0.0880275816 0.131276846 0.25645861 0.392906249 0.2419319
      0.172124401 0.0429548211 0.0577939823 0.0888934433 0.111232787
      0.10262388 0.163968518 0.186385185 0.15351291 0.0932962894
      0.0539428629 0.0563800186 0.0728817731 0.0855120495 0.0601126216
      0.236066446 0.299418747 0.205480903 0.162040651 0.108024366
      0.063886635 0.041801393 0.0556498803 0.0854610205 0.28786841
      0.386208683 0.165622711 0.0824933201 0.0432549752 0.0565079264
      0.0483408608 0.05368625 0.0902699828 0.212020397 0.305993974
      0.317483097 0.25413689 0.179283172 0.0509221554 0.042255003
      0.0470634624 0.0944261253 0.177943647 0.260936946 0.179571271
      0.129230335 0.0847294182 0.0156282298 0.029547032 0.0502912998
      0.0664902255 0.227699593 0.396763802 0.233186543 0.173227653
      0.0744766071 0.00745211029 0.0252051223 0.0258864723 0.0290689692
      0.126513794 0.264318854 0.282357365 0.197364792 0.131081522
      0.027439151 0.0555155985 0.0470367931 0.0409487598 0.188645616
      0.326167524 0.255881727 0.246585563 0.153713301 0.0494906418
      0.0522563048 0.0421113893 0.0350070409 0.207255989 0.313295841
      0.130509302 0.10276664 0.050394807 0.00806366093 0.00606593816
      0.0344271511 0.101102464 0.252543032 0.415550053 0.159596324
      0.0588593259 0.0205465071 0.00355627015 0.0077155144 0.0792830884
      0.222293884 0.134640038 0.17595087 0.205310747 0.209097087
      0.130392775 0.0430262014 0.01628449 0.0350563526 0.0748882443
      0.208557844 0.37312302 0.303463995 0.143911064 0.0867775157
      0.0324427299 0.00985348783 0.0631914362 0.148202479 0.171604335
      0.397598535 0.255456954 0.0329373963 0.0027547176 0.0033012724
      0.00803051423 0.0306306127 0.0764831454 0.351725876 0.410644263
      0.199864015 0.0363769867 0.0130020743 0.00977084413 0.0108990734
      0.0138828726 0.0714624673 0.117965959 0.339999557 0.279995084
      0.062724106 0.053057991 0.0217280965 0.0195193235 0.0345362462
      0.0710628554 0.176666573 0.271685541 0.22694613 0.0862106979
      0.0447934754 0.02592461 0.0362393335 0.0299257897 0.0724784508
      0.456248105 0.349466622 0.0632501096 0.0247354619 0.0166629348
      0.0163004287 0.0105764335 0.0475712195 0.194069952 0.3491171
      0.210197598 0.0422352664 0.041249834 0.0400474481 0.0618949458
      0.0870138705 0.201655507 0.300515175 0.222557873 0.238618344
      0.111404881 0.0717976764 0.0281966161 0.0400508866 0.0410269015
      0.0481294058 0.0898422971 0.145656213 0.147053987 0.0506458059
      0.0774399266 0.117712617 0.15876615 0.173191637 0.179393291
      0.123604514 0.155047551 0.115545824 0.067624703 0.0930900127
      0.11479304 0.115393035 0.156458244 0.169791862 0.168077871
      0.10943903 0.100366101 0.0949158072 0.14108482 0.180362523
      0.166641861 0.137714937 0.135097057 0.0812906101 0.0937212259
      0.0946257785 0.0616500154 0.0970148742 0.214878395 0.368486732
      0.31713292 0.167181015 0.0823908374 0.201101154 0.208817303
      0.17300956 0.0936928168 0.213706926 0.292150676 0.222605765
      0.129238352 0.115146786 0.185746297 0.147534057 0.0984800979
      0.0848154575 0.168619394 0.149436191 0.0888674259 0.132011458
      0.138504565 0.282188296 0.25524348 0.146732673 0.0683996752
      0.126090527 0.0555435941 0.185851738 0.175277218 0.330899626
      0.192891717 0.242897406 0.252211869 0.0846584216 0.224837035
      0.113533989 0.0679942146 0.0709613785 0.119499795 0.187182292
      0.2067357 0.233314425 0.110616602 0.185351998 0.0583173931
      0.0946330428 0.0691205338 0.106936976 0.0290674865 0.0371559076
